{"learner":{"attributes":{"scikit_learn":"{\"_estimator_type\": \"classifier\"}"},"feature_names":["age","income_level_high","income_level_low","income_level_middle","education_level_college","education_level_high_school","education_level_university","employment_status_employed","employment_status_retired","employment_status_student","employment_status_unemployed"],"feature_types":["int","int","int","int","int","int","int","int","int","int","int"],"gradient_booster":{"model":{"gbtree_model_param":{"num_parallel_tree":"1","num_trees":"300"},"iteration_indptr":[0,3,6,9,12,15,18,21,24,27,30,33,36,39,42,45,48,51,54,57,60,63,66,69,72,75,78,81,84,87,90,93,96,99,102,105,108,111,114,117,120,123,126,129,132,135,138,141,144,147,150,153,156,159,162,165,168,171,174,177,180,183,186,189,192,195,198,201,204,207,210,213,216,219,222,225,228,231,234,237,240,243,246,249,252,255,258,261,264,267,270,273,276,279,282,285,288,291,294,297,300],"tree_info":[0,1,2,0,1,2,0,1,2,0,1,2,0,1,2,0,1,2,0,1,2,0,1,2,0,1,2,0,1,2,0,1,2,0,1,2,0,1,2,0,1,2,0,1,2,0,1,2,0,1,2,0,1,2,0,1,2,0,1,2,0,1,2,0,1,2,0,1,2,0,1,2,0,1,2,0,1,2,0,1,2,0,1,2,0,1,2,0,1,2,0,1,2,0,1,2,0,1,2,0,1,2,0,1,2,0,1,2,0,1,2,0,1,2,0,1,2,0,1,2,0,1,2,0,1,2,0,1,2,0,1,2,0,1,2,0,1,2,0,1,2,0,1,2,0,1,2,0,1,2,0,1,2,0,1,2,0,1,2,0,1,2,0,1,2,0,1,2,0,1,2,0,1,2,0,1,2,0,1,2,0,1,2,0,1,2,0,1,2,0,1,2,0,1,2,0,1,2,0,1,2,0,1,2,0,1,2,0,1,2,0,1,2,0,1,2,0,1,2,0,1,2,0,1,2,0,1,2,0,1,2,0,1,2,0,1,2,0,1,2,0,1,2,0,1,2,0,1,2,0,1,2,0,1,2,0,1,2,0,1,2,0,1,2,0,1,2,0,1,2,0,1,2,0,1,2,0,1,2,0,1,2,0,1,2,0,1,2,0,1,2,0,1,2,0,1,2,0,1,2],"trees":[{"base_weights":[5.8591655E-3,2.0134946E-2,1.1588194E-3,3.423906E-2,-2.2546127E-2,-3.9336183E-3,1.7883472E-2,4.205446E-2,1.09962905E-2,-3.803652E-2,2.3622002E-2,-9.719732E-5,-1.16940355E-2,1.0714028E-4,3.5510466E-2,7.197882E-2,2.8871262E-2,-7.6782495E-2,2.176022E-2,-4.7013447E-2,3.8734626E-2,-4.0715653E-2,5.4773975E-2,1.549529E-3,-3.591826E-2,-1.5757646E-2,8.0032885E-4,-1.6285807E-2,3.1638257E-2,1.5758742E-2,7.6395646E-2,8.8463664E-2,4.1026678E-2,1.2557755E-2,6.098375E-2,-1.486881E-1,4.3478217E-2,4.082539E-2,-1.6979896E-2,-7.1305595E-2,-4.4614257E-8,1.04063384E-1,-8.196726E-2,9.599956E-3,-7.164184E-2,6.505506E-2,-4.3954266E-8,-8.9395774E-4,2.6043082E-2,7.3434954E-4,-1.4634152E-1,-5.8876607E-3,-4.5657355E-2,-2.1531774E-2,7.212744E-2,4.3848246E-2,-4.1228455E-2,1.14285275E-2,5.1223986E-2,3.3643223E-2,-3.510192E-2,1.0062162E-1,2.630381E-3,3.3361662E-2,1.3143035E-2,1.860094E-2,-1.3336402E-8,-1.3502731E-3,7.4943095E-3,1.1798307E-2,5.6510236E-2,-3.6154967E-2,-6.070383E-2,-4.2353077E-3,4.8292674E-2,2.2948738E-2,3.7701845E-3,4.568515E-3,-3.509751E-2,-9.365378E-4,-2.3901006E-2,-4.4554472E-2,5.606765E-3,5.5384606E-2,-2.0785353E-3,-4.809162E-2,3.2727264E-2,-6.29372E-3,2.1951208E-2,-4.3326054E-2,-3.2316113E-3,1.5602524E-2,3.9387297E-2,-1.3196494E-2,2.1951208E-2,9.086356E-4,-3.7426993E-3,-3.0833369E-3,4.2722624E-2,-7.557958E-3,2.0948958E-2,-5.707319E-2,-2.6706364E-3,-3.5996567E-3,1.0828591E-2,-1.985375E-2,2.9022763E-3,-1.15383235E-4,-2.0066075E-2,3.7483547E-2,-6.20691E-3,2.3807159E-2,-1.8407611E-2,-5.771006E-3,-3.2533515E-2,-1.13143E-2,2.1763857E-2,2.0737315E-2,-1.5241455E-3,1.4343768E-2,1.7056089E-3,-4.7966357E-2,-4.2323205E-3,2.0020925E-2,4.2608686E-2,3.9647564E-2,-1.5661916E-2],"categories":[],"categories_nodes":[],"categories_segments":[],"categories_sizes":[],"default_left":[0,0,0,0,0,0,0,0,0,0,0,0,0,0,0,0,0,0,0,0,0,0,0,0,0,0,0,0,0,0,0,0,0,0,0,0,0,0,0,0,0,0,0,0,0,0,0,0,0,0,0,0,0,0,0,0,0,0,0,0,0,0,0,0,0,0,0,0,0,0,0,0,0,0,0,0,0,0,0,0,0,0,0,0,0,0,0,0,0,0,0,0,0,0,0,0,0,0,0,0,0,0,0,0,0,0,0,0,0,0,0,0,0,0,0,0,0,0,0,0,0,0,0,0,0,0,0],"id":0,"left_children":[1,3,5,7,9,11,13,15,17,19,21,23,25,27,29,31,33,35,37,39,41,43,45,47,49,51,53,55,57,59,61,63,65,67,69,71,73,75,77,79,81,83,85,87,89,91,93,95,97,99,101,103,105,107,109,111,113,115,117,119,121,123,125,-1,-1,-1,-1,-1,-1,-1,-1,-1,-1,-1,-1,-1,-1,-1,-1,-1,-1,-1,-1,-1,-1,-1,-1,-1,-1,-1,-1,-1,-1,-1,-1,-1,-1,-1,-1,-1,-1,-1,-1,-1,-1,-1,-1,-1,-1,-1,-1,-1,-1,-1,-1,-1,-1,-1,-1,-1,-1,-1,-1,-1,-1,-1,-1],"loss_changes":[2.385861E0,5.3025312E0,2.2783763E0,1.2020917E0,1.5657537E0,6.1054456E-1,1.9565463E0,1.9522247E0,1.5769366E0,1.1312151E0,1.1052331E0,8.0960655E-1,3.444571E-1,1.607979E0,2.5306537E0,7.690458E-1,1.8016286E0,1.5831773E0,1.0981512E0,1.6761582E0,1.3656783E0,2.8095323E-1,2.0904863E-1,7.85364E-1,2.441529E0,1.5104631E0,2.6551213E0,3.0717742E0,4.206134E-1,1.9252222E0,1.8242979E0,9.976578E-1,4.5449007E-1,4.83889E-1,3.18923E0,1.4844346E-1,4.6922088E-1,1.003097E0,1.5826787E0,5.5162954E-1,1.3933676E0,1.0036207E0,9.304831E-1,1.3653024E-1,4.9312788E-1,2.632687E-1,1.95265E-1,5.4215837E-1,5.0324097E0,8.148905E-1,9.0540624E-1,9.8818374E-1,1.44311E0,1.2175397E0,1.9510124E0,2.2484174E0,2.1372144E0,1.5795717E0,5.447142E-1,6.198698E-1,1.4406605E0,1.0688782E0,1.8070914E0,0E0,0E0,0E0,0E0,0E0,0E0,0E0,0E0,0E0,0E0,0E0,0E0,0E0,0E0,0E0,0E0,0E0,0E0,0E0,0E0,0E0,0E0,0E0,0E0,0E0,0E0,0E0,0E0,0E0,0E0,0E0,0E0,0E0,0E0,0E0,0E0,0E0,0E0,0E0,0E0,0E0,0E0,0E0,0E0,0E0,0E0,0E0,0E0,0E0,0E0,0E0,0E0,0E0,0E0,0E0,0E0,0E0,0E0,0E0,0E0,0E0,0E0,0E0,0E0],"parents":[2147483647,0,0,1,1,2,2,3,3,4,4,5,5,6,6,7,7,8,8,9,9,10,10,11,11,12,12,13,13,14,14,15,15,16,16,17,17,18,18,19,19,20,20,21,21,22,22,23,23,24,24,25,25,26,26,27,27,28,28,29,29,30,30,31,31,32,32,33,33,34,34,35,35,36,36,37,37,38,38,39,39,40,40,41,41,42,42,43,43,44,44,45,45,46,46,47,47,48,48,49,49,50,50,51,51,52,52,53,53,54,54,55,55,56,56,57,57,58,58,59,59,60,60,61,61,62,62],"right_children":[2,4,6,8,10,12,14,16,18,20,22,24,26,28,30,32,34,36,38,40,42,44,46,48,50,52,54,56,58,60,62,64,66,68,70,72,74,76,78,80,82,84,86,88,90,92,94,96,98,100,102,104,106,108,110,112,114,116,118,120,122,124,126,-1,-1,-1,-1,-1,-1,-1,-1,-1,-1,-1,-1,-1,-1,-1,-1,-1,-1,-1,-1,-1,-1,-1,-1,-1,-1,-1,-1,-1,-1,-1,-1,-1,-1,-1,-1,-1,-1,-1,-1,-1,-1,-1,-1,-1,-1,-1,-1,-1,-1,-1,-1,-1,-1,-1,-1,-1,-1,-1,-1,-1,-1,-1,-1],"split_conditions":[3E1,1E0,5.3E1,1E0,1E0,1E0,1E0,2.3E1,2.1E1,2.9E1,2.3E1,5.2E1,1E0,1E0,1E0,1E0,1E0,1E0,1E0,1E0,1E0,2.1E1,2.9E1,5E1,1E0,1E0,1E0,5.5E1,1E0,1E0,1E0,1E0,1E0,2.6E1,2.9E1,1E0,1E0,2.5E1,2.8E1,2.1E1,2.1E1,1E0,1E0,1E0,2.2E1,2.8E1,1E0,1E0,1E0,1E0,1E0,5E1,4.7E1,1E0,4.5E1,1E0,1E0,5.7E1,1E0,1E0,5.4E1,5.7E1,5.5E1,3.3361662E-2,1.3143035E-2,1.860094E-2,-1.3336402E-8,-1.3502731E-3,7.4943095E-3,1.1798307E-2,5.6510236E-2,-3.6154967E-2,-6.070383E-2,-4.2353077E-3,4.8292674E-2,2.2948738E-2,3.7701845E-3,4.568515E-3,-3.509751E-2,-9.365378E-4,-2.3901006E-2,-4.4554472E-2,5.606765E-3,5.5384606E-2,-2.0785353E-3,-4.809162E-2,3.2727264E-2,-6.29372E-3,2.1951208E-2,-4.3326054E-2,-3.2316113E-3,1.5602524E-2,3.9387297E-2,-1.3196494E-2,2.1951208E-2,9.086356E-4,-3.7426993E-3,-3.0833369E-3,4.2722624E-2,-7.557958E-3,2.0948958E-2,-5.707319E-2,-2.6706364E-3,-3.5996567E-3,1.0828591E-2,-1.985375E-2,2.9022763E-3,-1.15383235E-4,-2.0066075E-2,3.7483547E-2,-6.20691E-3,2.3807159E-2,-1.8407611E-2,-5.771006E-3,-3.2533515E-2,-1.13143E-2,2.1763857E-2,2.0737315E-2,-1.5241455E-3,1.4343768E-2,1.7056089E-3,-4.7966357E-2,-4.2323205E-3,2.0020925E-2,4.2608686E-2,3.9647564E-2,-1.5661916E-2],"split_indices":[0,5,0,9,10,1,6,0,0,0,0,0,5,2,1,1,4,4,4,9,1,0,0,0,10,7,7,0,4,7,9,4,8,0,0,1,2,0,0,0,0,9,8,3,0,0,3,10,10,5,5,0,0,10,0,10,7,0,8,8,0,0,0,0,0,0,0,0,0,0,0,0,0,0,0,0,0,0,0,0,0,0,0,0,0,0,0,0,0,0,0,0,0,0,0,0,0,0,0,0,0,0,0,0,0,0,0,0,0,0,0,0,0,0,0,0,0,0,0,0,0,0,0,0,0,0,0],"split_type":[0,0,0,0,0,0,0,0,0,0,0,0,0,0,0,0,0,0,0,0,0,0,0,0,0,0,0,0,0,0,0,0,0,0,0,0,0,0,0,0,0,0,0,0,0,0,0,0,0,0,0,0,0,0,0,0,0,0,0,0,0,0,0,0,0,0,0,0,0,0,0,0,0,0,0,0,0,0,0,0,0,0,0,0,0,0,0,0,0,0,0,0,0,0,0,0,0,0,0,0,0,0,0,0,0,0,0,0,0,0,0,0,0,0,0,0,0,0,0,0,0,0,0,0,0,0,0],"sum_hessian":[3.5555555E4,8.806222E3,2.6749332E4,6.619111E3,2.187111E3,2.050622E4,6.243111E3,4.9528887E3,1.6662222E3,1.6377777E3,5.493333E2,1.372311E4,6.783111E3,3.1088887E3,3.134222E3,1.5133333E3,3.4395554E3,1.8133333E2,1.4848888E3,1.4666666E3,1.711111E2,1.791111E2,3.702222E2,1.3120888E4,6.0222217E2,5.1182217E3,1.6648888E3,2.0457777E3,1.0631111E3,2.1142222E3,1.01999994E3,9.8622217E2,5.271111E2,2.2817776E3,1.1577777E3,1.1333333E2,6.799999E1,9.95111E2,4.8977774E2,9.666666E2,4.9999997E2,1.1111111E2,5.9999996E1,6.844444E1,1.1066666E2,3.1155554E2,5.8666664E1,1.1931555E4,1.1893333E3,4.5288885E2,1.4933333E2,3.8488887E3,1.2693333E3,1.2684443E3,3.9644443E2,5.9955554E2,1.4462222E3,5.2399994E2,5.391111E2,1.5644443E3,5.497778E2,7.675555E2,2.5244443E2,6.524444E2,3.3377777E2,3.4844443E2,1.7866666E2,9.617777E2,1.3199999E3,9.906666E2,1.671111E2,7.644444E1,3.6888885E1,4.622222E1,2.1777777E1,4.3911108E2,5.5599994E2,3.7111108E2,1.1866666E2,1.0577777E2,8.6088885E2,5.5111107E1,4.4488885E2,6.3999996E1,4.7111107E1,4.2666664E1,1.7333332E1,4.6666664E1,2.1777777E1,4.9777775E1,6.0888885E1,2.6177777E2,4.9777775E1,3.6888885E1,2.1777777E1,8.913333E3,3.018222E3,9.071111E2,2.822222E2,3.2977777E2,1.2311111E2,1.12888885E2,3.6444443E1,3.3604443E3,4.8844443E2,9.257777E2,3.4355554E2,8.657777E2,4.0266666E2,2.5244443E2,1.4399998E2,4.4844443E2,1.511111E2,1.0906666E3,3.5555554E2,2.9066666E2,2.3333331E2,4.0888885E2,1.3022221E2,1.0377777E3,5.266666E2,7.822221E1,4.7155554E2,4.2355554E2,3.4399997E2,7.4666664E1,1.7777777E2],"tree_param":{"num_deleted":"0","num_feature":"11","num_nodes":"127","size_leaf_vector":"1"}},{"base_weights":[1.61241E-3,-1.1482984E-3,9.943084E-3,4.835891E-3,-7.1485555E-3,1.8986352E-2,-1.8036118E-2,-1.0207341E-2,1.4681377E-2,-1.7498264E-2,3.317372E-3,-1.2125825E-2,2.8939074E-2,3.0669684E-2,-3.3930685E-2,-3.6714866E-3,-5.597584E-2,2.4439117E-2,-4.6742833E-3,-1.2442756E-2,-3.757111E-2,8.398276E-3,-1.225745E-2,4.6482356E-3,-4.5076188E-2,3.429296E-2,-4.0231682E-2,-5.740016E-2,8.231401E-2,-7.7893496E-2,2.1162355E-2,-1.46074705E-2,2.8953612E-2,-7.231672E-2,-2.3797765E-2,4.1451164E-2,7.4376645E-3,1.1183553E-2,-5.1648576E-2,-2.6909804E-2,1.8547841E-3,-4.7166407E-2,-1.7508293E-2,3.0861886E-2,-1.337241E-3,-3.286068E-2,3.4907095E-2,9.998807E-3,-4.2467184E-2,-1.568339E-2,-1.7339155E-1,8.517346E-2,3.0609876E-2,-6.512707E-2,7.999956E-3,-1.3120274E-1,9.045222E-2,1.09664455E-1,2.8929561E-2,-1.0978962E-1,-1.3289082E-2,5.120407E-2,-3.595211E-2,-2.1822986E-3,-8.917899E-3,4.3558585E-3,1.7483316E-2,-1.7081866E-2,-2.9767785E-2,3.6072014E-3,-3.7429128E-2,2.0683635E-2,4.2295195E-3,-5.412191E-3,9.708249E-3,2.0319838E-2,-2.3904137E-4,-2.1744553E-2,5.027932E-2,-1.36695625E-2,-2.5371166E-3,-1.6819792E-3,7.256857E-3,-3.6699583E-3,-2.491967E-2,-2.8289838E-2,1.562951E-2,1.4005466E-2,-4.006366E-4,3.1038811E-3,-7.342771E-3,-3.6112487E-3,-2.1825979E-2,2.2678621E-2,-1.1954473E-2,-1.8643326E-3,1.264997E-2,-3.1127835E-2,2.4324313E-2,-1.4884247E-2,1.6551713E-2,-3.8994815E-2,-7.220632E-2,2.9079027E-3,6.716417E-2,-1.338449E-8,1.03744045E-2,-2.2545716E-2,-1.2912497E-2,2.5976218E-2,-2.3119282E-2,-5.2276313E-2,-2.4064185E-2,5.1958755E-2,-7.438018E-2,4.06968E-2,1.6438344E-2,-4.4720512E-2,1.8305073E-2,-1.9877315E-2,-4.338067E-2,2.5891818E-2,-1.800975E-2,4.2906366E-2,-3.5363594E-3,-5.0391953E-2,1.5120514E-2],"categories":[],"categories_nodes":[],"categories_segments":[],"categories_sizes":[],"default_left":[0,0,0,0,0,0,0,0,0,0,0,0,0,0,0,0,0,0,0,0,0,0,0,0,0,0,0,0,0,0,0,0,0,0,0,0,0,0,0,0,0,0,0,0,0,0,0,0,0,0,0,0,0,0,0,0,0,0,0,0,0,0,0,0,0,0,0,0,0,0,0,0,0,0,0,0,0,0,0,0,0,0,0,0,0,0,0,0,0,0,0,0,0,0,0,0,0,0,0,0,0,0,0,0,0,0,0,0,0,0,0,0,0,0,0,0,0,0,0,0,0,0,0,0,0,0,0],"id":1,"left_children":[1,3,5,7,9,11,13,15,17,19,21,23,25,27,29,31,33,35,37,39,41,43,45,47,49,51,53,55,57,59,61,63,65,67,69,71,73,75,77,79,81,83,85,87,89,91,93,95,97,99,101,103,105,107,109,111,113,115,117,119,121,123,125,-1,-1,-1,-1,-1,-1,-1,-1,-1,-1,-1,-1,-1,-1,-1,-1,-1,-1,-1,-1,-1,-1,-1,-1,-1,-1,-1,-1,-1,-1,-1,-1,-1,-1,-1,-1,-1,-1,-1,-1,-1,-1,-1,-1,-1,-1,-1,-1,-1,-1,-1,-1,-1,-1,-1,-1,-1,-1,-1,-1,-1,-1,-1,-1],"loss_changes":[8.1776094E-1,9.590021E-1,2.2396839E0,1.9806656E0,1.4446161E0,2.0716054E0,1.6750275E0,1.5823249E0,1.5266882E0,6.799903E-1,5.248944E-1,8.966459E-1,1.8782644E0,2.426951E0,3.951465E0,1.6524681E0,3.4584475E-1,1.5539784E0,2.0192025E0,1.1082926E0,2.5878298E-1,1.0937341E0,1.586706E0,2.7159414E-1,2.0611548E0,8.7901306E-1,4.382593E-1,2.166359E0,4.8757958E-1,1.8679905E0,1.2450453E0,3.8433802E-1,4.913187E-1,1.7554307E-1,8.120607E-1,2.0189357E0,1.7080983E0,1.3731555E0,3.1369042E0,9.1641116E-1,4.49363E-1,1.1422799E0,2.345506E0,7.704201E-1,9.4371253E-1,9.42881E-1,1.5133693E0,5.0447905E-1,8.405519E-1,1.0758077E0,2.6635766E-1,3.316716E0,5.335007E-1,5.002761E-2,8.4229517E-1,2.76026E-1,1.9002277E0,3.090148E-1,6.671852E-1,9.106393E-1,1.4064616E0,2.7502475E0,2.862397E0,0E0,0E0,0E0,0E0,0E0,0E0,0E0,0E0,0E0,0E0,0E0,0E0,0E0,0E0,0E0,0E0,0E0,0E0,0E0,0E0,0E0,0E0,0E0,0E0,0E0,0E0,0E0,0E0,0E0,0E0,0E0,0E0,0E0,0E0,0E0,0E0,0E0,0E0,0E0,0E0,0E0,0E0,0E0,0E0,0E0,0E0,0E0,0E0,0E0,0E0,0E0,0E0,0E0,0E0,0E0,0E0,0E0,0E0,0E0,0E0,0E0,0E0,0E0,0E0],"parents":[2147483647,0,0,1,1,2,2,3,3,4,4,5,5,6,6,7,7,8,8,9,9,10,10,11,11,12,12,13,13,14,14,15,15,16,16,17,17,18,18,19,19,20,20,21,21,22,22,23,23,24,24,25,25,26,26,27,27,28,28,29,29,30,30,31,31,32,32,33,33,34,34,35,35,36,36,37,37,38,38,39,39,40,40,41,41,42,42,43,43,44,44,45,45,46,46,47,47,48,48,49,49,50,50,51,51,52,52,53,53,54,54,55,55,56,56,57,57,58,58,59,59,60,60,61,61,62,62],"right_children":[2,4,6,8,10,12,14,16,18,20,22,24,26,28,30,32,34,36,38,40,42,44,46,48,50,52,54,56,58,60,62,64,66,68,70,72,74,76,78,80,82,84,86,88,90,92,94,96,98,100,102,104,106,108,110,112,114,116,118,120,122,124,126,-1,-1,-1,-1,-1,-1,-1,-1,-1,-1,-1,-1,-1,-1,-1,-1,-1,-1,-1,-1,-1,-1,-1,-1,-1,-1,-1,-1,-1,-1,-1,-1,-1,-1,-1,-1,-1,-1,-1,-1,-1,-1,-1,-1,-1,-1,-1,-1,-1,-1,-1,-1,-1,-1,-1,-1,-1,-1,-1,-1,-1,-1,-1,-1],"split_conditions":[1E0,4E1,1E0,2.8E1,5E1,3E1,3E1,2.7E1,1E0,4.8E1,1E0,1E0,5.8E1,2.4E1,4.7E1,1E0,1E0,3.4E1,1E0,4.4E1,1E0,5.3E1,5.7E1,2.9E1,2.8E1,3.2E1,1E0,1E0,1E0,1E0,1E0,1E0,1E0,1E0,1E0,1E0,1E0,3E1,3.9E1,1E0,1E0,1E0,1E0,1E0,1E0,1E0,1E0,1E0,1E0,1E0,1E0,1E0,3.5E1,1E0,5.9E1,2.2E1,2.3E1,2.8E1,2.5E1,3.8E1,3.5E1,5.2E1,5.2E1,-2.1822986E-3,-8.917899E-3,4.3558585E-3,1.7483316E-2,-1.7081866E-2,-2.9767785E-2,3.6072014E-3,-3.7429128E-2,2.0683635E-2,4.2295195E-3,-5.412191E-3,9.708249E-3,2.0319838E-2,-2.3904137E-4,-2.1744553E-2,5.027932E-2,-1.36695625E-2,-2.5371166E-3,-1.6819792E-3,7.256857E-3,-3.6699583E-3,-2.491967E-2,-2.8289838E-2,1.562951E-2,1.4005466E-2,-4.006366E-4,3.1038811E-3,-7.342771E-3,-3.6112487E-3,-2.1825979E-2,2.2678621E-2,-1.1954473E-2,-1.8643326E-3,1.264997E-2,-3.1127835E-2,2.4324313E-2,-1.4884247E-2,1.6551713E-2,-3.8994815E-2,-7.220632E-2,2.9079027E-3,6.716417E-2,-1.338449E-8,1.03744045E-2,-2.2545716E-2,-1.2912497E-2,2.5976218E-2,-2.3119282E-2,-5.2276313E-2,-2.4064185E-2,5.1958755E-2,-7.438018E-2,4.06968E-2,1.6438344E-2,-4.4720512E-2,1.8305073E-2,-1.9877315E-2,-4.338067E-2,2.5891818E-2,-1.800975E-2,4.2906366E-2,-3.5363594E-3,-5.0391953E-2,1.5120514E-2],"split_indices":[7,0,5,0,0,0,0,0,8,0,4,4,0,0,0,5,3,0,5,0,1,0,0,0,0,0,2,3,3,2,2,8,8,10,5,6,9,0,0,6,5,6,6,2,3,8,2,1,3,3,2,2,0,4,0,0,0,0,0,0,0,0,0,0,0,0,0,0,0,0,0,0,0,0,0,0,0,0,0,0,0,0,0,0,0,0,0,0,0,0,0,0,0,0,0,0,0,0,0,0,0,0,0,0,0,0,0,0,0,0,0,0,0,0,0,0,0,0,0,0,0,0,0,0,0,0,0],"split_type":[0,0,0,0,0,0,0,0,0,0,0,0,0,0,0,0,0,0,0,0,0,0,0,0,0,0,0,0,0,0,0,0,0,0,0,0,0,0,0,0,0,0,0,0,0,0,0,0,0,0,0,0,0,0,0,0,0,0,0,0,0,0,0,0,0,0,0,0,0,0,0,0,0,0,0,0,0,0,0,0,0,0,0,0,0,0,0,0,0,0,0,0,0,0,0,0,0,0,0,0,0,0,0,0,0,0,0,0,0,0,0,0,0,0,0,0,0,0,0,0,0,0,0,0,0,0,0],"sum_hessian":[3.5555555E4,2.670622E4,8.849333E3,1.337111E4,1.333511E4,6.6879995E3,2.1613333E3,5.289333E3,8.0817773E3,6.704444E3,6.6306665E3,1.6208888E3,5.067111E3,5.3155554E2,1.6297777E3,4.629333E3,6.5999994E2,5.3728887E3,2.7088887E3,5.3568887E3,1.3475554E3,4.9999995E3,1.6306666E3,1.0746666E3,5.4622217E2,4.703555E3,3.6355554E2,1.9644443E2,3.3511108E2,9.0622217E2,7.2355554E2,3.4675554E3,1.1617777E3,4.3688885E2,2.231111E2,2.6848887E3,2.6879998E3,2.0257777E3,6.831111E2,2.6622222E3,2.6946665E3,9.106666E2,4.3688885E2,1.511111E3,3.4888887E3,1.1351111E3,4.955555E2,9.657777E2,1.08888885E2,4.453333E2,1.00888885E2,3.1599997E2,4.387555E3,2.3955554E2,1.2399999E2,1.311111E2,6.533333E1,2.2088887E2,1.1422221E2,6.0622217E2,2.9999997E2,4.742222E2,2.4933331E2,2.3359998E3,1.1315555E3,7.795555E2,3.822222E2,2.7999997E2,1.5688889E2,1.6533333E2,5.7777775E1,1.3382222E3,1.3466666E3,1.3293333E3,1.3586666E3,3.533333E2,1.6724443E3,6.244444E2,5.8666664E1,1.3231111E3,1.3391111E3,2.0204443E3,6.7422217E2,4.622222E2,4.4844443E2,2.0755554E2,2.2933331E2,1.01288885E3,4.982222E2,2.3186665E3,1.1702222E3,7.466666E2,3.8844443E2,3.2088885E2,1.7466666E2,6.426666E2,3.2311108E2,7.2888885E1,3.5999996E1,3.013333E2,1.4399998E2,6.3111107E1,3.7777775E1,2.0533333E2,1.1066666E2,5.0399997E2,3.8835554E3,1.631111E2,7.644444E1,6.444444E1,5.9555553E1,6.977777E1,6.133333E1,5.2888885E1,1.2444444E1,1.4888889E2,7.199999E1,1.6888887E1,9.733333E1,2.7066666E2,3.3555554E2,9.555555E1,2.0444443E2,1.9244443E2,2.8177777E2,9.822221E1,1.511111E2],"tree_param":{"num_deleted":"0","num_feature":"11","num_nodes":"127","size_leaf_vector":"1"}},{"base_weights":[-7.47171E-3,-1.920935E-2,-5.078687E-4,-2.5760176E-2,6.077965E-4,1.189356E-2,-1.9129029E-2,-2.0595113E-2,-4.163448E-2,5.6108773E-2,-8.351348E-3,2.2970859E-2,6.515953E-4,-2.6918622E-2,-3.2859156E-3,-1.2104955E-2,-3.3006713E-2,-6.725865E-2,-3.5009485E-2,1.1099017E-1,-5.478456E-2,-2.4961865E-2,3.9999958E-2,4.2067003E-2,1.7714653E-3,-1.5769266E-2,3.3139233E-2,-1.0499835E-2,-3.7767332E-2,-1.668272E-2,3.624157E-2,-2.8203905E-2,1.2289599E-3,-6.799922E-2,-2.5481133E-2,-9.148165E-2,-1.8036118E-2,-4.9320806E-2,-7.079094E-3,7.327379E-2,2.3547877E-1,-4.432571E-8,-7.1885005E-2,-4.028715E-2,7.94566E-3,9.052269E-2,1.1480463E-2,5.320081E-2,9.253503E-3,-3.7680134E-2,1.7265517E-2,-5.6346944E-3,-3.6276568E-2,4.4654086E-2,-1.1865188E-3,-4.2869117E-2,2.2230515E-2,-1.3638922E-2,-6.2077984E-2,-1.0215328E-1,-7.0814816E-3,1.2320285E-2,1.3043474E-1,-6.513615E-3,-1.2238965E-2,-4.4654524E-3,1.015828E-2,-3.484421E-2,6.9436072E-3,3.6023885E-3,-1.0432205E-2,-1.8887736E-2,-3.125906E-2,2.6548542E-3,-2.2085905E-2,-1.7821796E-2,-6.0382565E-3,1.4267584E-2,-8.041251E-3,2.7054098E-2,9.828381E-3,4.914675E-2,8.6685546E-2,-1.5789488E-2,1.443849E-2,-7.7215116E-3,-1.5901536E-2,-1.7239893E-2,1.4388477E-2,2.4878038E-2,3.4816235E-2,-2.5379057E-3,1.5964512E-2,2.4193956E-2,8.199776E-3,-9.265036E-3,1.5544819E-2,-2.1489497E-2,7.5709647E-3,1.0021475E-2,-8.782149E-3,4.2005666E-4,-1.0374654E-2,-7.4901185E-3,-2.0968245E-2,1.680404E-2,6.4942744E-3,5.45288E-3,-1.1218144E-2,-6.940888E-3,-3.1295393E-2,1.0531545E-2,-5.1194676E-3,-8.566603E-3,1.0182553E-2,-4.183067E-3,-2.1635601E-2,-9.4838004E-4,-5.704827E-2,1.1241435E-3,-8.855529E-3,7.485592E-3,-2.259972E-2,3.2590516E-2,6.228373E-2],"categories":[],"categories_nodes":[],"categories_segments":[],"categories_sizes":[],"default_left":[0,0,0,0,0,0,0,0,0,0,0,0,0,0,0,0,0,0,0,0,0,0,0,0,0,0,0,0,0,0,0,0,0,0,0,0,0,0,0,0,0,0,0,0,0,0,0,0,0,0,0,0,0,0,0,0,0,0,0,0,0,0,0,0,0,0,0,0,0,0,0,0,0,0,0,0,0,0,0,0,0,0,0,0,0,0,0,0,0,0,0,0,0,0,0,0,0,0,0,0,0,0,0,0,0,0,0,0,0,0,0,0,0,0,0,0,0,0,0,0,0,0,0,0,0],"id":2,"left_children":[1,3,5,7,9,11,13,15,17,19,21,23,25,27,29,31,33,35,37,39,41,43,45,47,49,51,53,55,57,59,61,63,65,67,69,71,73,75,77,79,81,83,-1,85,87,89,91,93,95,97,99,101,103,105,107,109,111,113,115,117,119,121,123,-1,-1,-1,-1,-1,-1,-1,-1,-1,-1,-1,-1,-1,-1,-1,-1,-1,-1,-1,-1,-1,-1,-1,-1,-1,-1,-1,-1,-1,-1,-1,-1,-1,-1,-1,-1,-1,-1,-1,-1,-1,-1,-1,-1,-1,-1,-1,-1,-1,-1,-1,-1,-1,-1,-1,-1,-1,-1,-1,-1,-1,-1],"loss_changes":[2.9063497E0,1.7188292E0,5.153972E0,8.1502485E-1,1.636558E0,1.668266E0,1.1009746E0,7.9096603E-1,4.121809E-1,2.7900782E0,2.2770083E0,2.7315605E0,3.5480719E0,1.0649552E0,1.5584582E0,9.5764184E-1,8.014219E-1,5.95171E-1,7.7604175E-1,1.4210596E0,1.5402676E0,1.0643729E0,1.0436008E0,1.296421E0,1.9559518E0,9.179777E-1,8.826597E-1,2.5235224E0,2.1114178E0,1.8029152E0,1.677043E0,1.6433024E-1,1.284043E0,2.3690333E0,8.754362E-1,1.1501503E-1,2.4921988E-1,3.768716E-1,7.1174014E-1,1.5906858E-1,2.2386074E-1,3.0227977E-1,0E0,2.6501846E-1,1.759694E0,4.1079044E-2,3.8705027E-1,1.8794584E0,1.5400475E0,1.9292973E0,1.726628E0,6.023993E-1,5.537245E-1,4.3577623E-1,3.9460537E-1,1.4495587E0,5.998821E-1,1.2845637E0,8.657713E-1,1.9325058E0,4.8044515E-1,6.609104E-1,2.3112202E-1,0E0,0E0,0E0,0E0,0E0,0E0,0E0,0E0,0E0,0E0,0E0,0E0,0E0,0E0,0E0,0E0,0E0,0E0,0E0,0E0,0E0,0E0,0E0,0E0,0E0,0E0,0E0,0E0,0E0,0E0,0E0,0E0,0E0,0E0,0E0,0E0,0E0,0E0,0E0,0E0,0E0,0E0,0E0,0E0,0E0,0E0,0E0,0E0,0E0,0E0,0E0,0E0,0E0,0E0,0E0,0E0,0E0,0E0,0E0,0E0,0E0,0E0],"parents":[2147483647,0,0,1,1,2,2,3,3,4,4,5,5,6,6,7,7,8,8,9,9,10,10,11,11,12,12,13,13,14,14,15,15,16,16,17,17,18,18,19,19,20,20,21,21,22,22,23,23,24,24,25,25,26,26,27,27,28,28,29,29,30,30,31,31,32,32,33,33,34,34,35,35,36,36,37,37,38,38,39,39,40,40,41,41,43,43,44,44,45,45,46,46,47,47,48,48,49,49,50,50,51,51,52,52,53,53,54,54,55,55,56,56,57,57,58,58,59,59,60,60,61,61,62,62],"right_children":[2,4,6,8,10,12,14,16,18,20,22,24,26,28,30,32,34,36,38,40,42,44,46,48,50,52,54,56,58,60,62,64,66,68,70,72,74,76,78,80,82,84,-1,86,88,90,92,94,96,98,100,102,104,106,108,110,112,114,116,118,120,122,124,-1,-1,-1,-1,-1,-1,-1,-1,-1,-1,-1,-1,-1,-1,-1,-1,-1,-1,-1,-1,-1,-1,-1,-1,-1,-1,-1,-1,-1,-1,-1,-1,-1,-1,-1,-1,-1,-1,-1,-1,-1,-1,-1,-1,-1,-1,-1,-1,-1,-1,-1,-1,-1,-1,-1,-1,-1,-1,-1,-1,-1,-1],"split_conditions":[3.5E1,1E0,5E1,1E0,2.2E1,1E0,1E0,2.9E1,2.3E1,1E0,1E0,4.3E1,4.5E1,5.4E1,1E0,2.4E1,3E1,1E0,1E0,1E0,1E0,1E0,2.7E1,1E0,4.5E1,1E0,1E0,1E0,1E0,5.1E1,5.8E1,1E0,1E0,1E0,3.1E1,2.1E1,2.2E1,3.2E1,2.6E1,1E0,2.1E1,2.1E1,-7.1885005E-2,2.8E1,2.7E1,2.6E1,1E0,1E0,1E0,1E0,1E0,4.3E1,1E0,1E0,1E0,1E0,1E0,1E0,5.5E1,1E0,5.7E1,5.7E1,1E0,-6.513615E-3,-1.2238965E-2,-4.4654524E-3,1.015828E-2,-3.484421E-2,6.9436072E-3,3.6023885E-3,-1.0432205E-2,-1.8887736E-2,-3.125906E-2,2.6548542E-3,-2.2085905E-2,-1.7821796E-2,-6.0382565E-3,1.4267584E-2,-8.041251E-3,2.7054098E-2,9.828381E-3,4.914675E-2,8.6685546E-2,-1.5789488E-2,1.443849E-2,-7.7215116E-3,-1.5901536E-2,-1.7239893E-2,1.4388477E-2,2.4878038E-2,3.4816235E-2,-2.5379057E-3,1.5964512E-2,2.4193956E-2,8.199776E-3,-9.265036E-3,1.5544819E-2,-2.1489497E-2,7.5709647E-3,1.0021475E-2,-8.782149E-3,4.2005666E-4,-1.0374654E-2,-7.4901185E-3,-2.0968245E-2,1.680404E-2,6.4942744E-3,5.45288E-3,-1.1218144E-2,-6.940888E-3,-3.1295393E-2,1.0531545E-2,-5.1194676E-3,-8.566603E-3,1.0182553E-2,-4.183067E-3,-2.1635601E-2,-9.4838004E-4,-5.704827E-2,1.1241435E-3,-8.855529E-3,7.485592E-3,-2.259972E-2,3.2590516E-2,6.228373E-2],"split_indices":[0,5,0,7,0,6,3,0,0,3,8,0,0,0,7,0,0,2,1,7,8,1,0,9,0,2,7,6,6,0,0,10,9,9,0,0,0,0,0,9,0,0,0,0,0,0,2,4,4,3,7,0,8,2,2,9,8,9,0,6,0,0,5,0,0,0,0,0,0,0,0,0,0,0,0,0,0,0,0,0,0,0,0,0,0,0,0,0,0,0,0,0,0,0,0,0,0,0,0,0,0,0,0,0,0,0,0,0,0,0,0,0,0,0,0,0,0,0,0,0,0,0,0,0,0],"split_type":[0,0,0,0,0,0,0,0,0,0,0,0,0,0,0,0,0,0,0,0,0,0,0,0,0,0,0,0,0,0,0,0,0,0,0,0,0,0,0,0,0,0,0,0,0,0,0,0,0,0,0,0,0,0,0,0,0,0,0,0,0,0,0,0,0,0,0,0,0,0,0,0,0,0,0,0,0,0,0,0,0,0,0,0,0,0,0,0,0,0,0,0,0,0,0,0,0,0,0,0,0,0,0,0,0,0,0,0,0,0,0,0,0,0,0,0,0,0,0,0,0,0,0,0,0],"sum_hessian":[3.5555555E4,1.323911E4,2.2316443E4,9.949777E3,3.2893333E3,1.3395555E4,8.920889E3,7.5088887E3,2.4408887E3,4.5644443E2,2.8328887E3,6.7466665E3,6.6488887E3,5.9799995E3,2.9408887E3,4.4599995E3,3.0488887E3,4.995555E2,1.9413333E3,3.053333E2,1.511111E2,2.1088887E3,7.2399994E2,3.5488887E3,3.1977776E3,4.4168887E3,2.2319998E3,2.3799998E3,3.5999998E3,2.1968887E3,7.4399994E2,2.0199999E3,2.4399998E3,5.3822217E2,2.5106665E3,3.342222E2,1.6533333E2,1.2831111E3,6.5822217E2,2.3555554E2,6.977777E1,1.1733333E2,3.3777775E1,1.4386666E3,6.7022217E2,2.6044443E2,4.6355554E2,2.6493333E3,8.995555E2,9.0133325E2,2.2964443E3,2.9568887E3,1.4599999E3,1.671111E3,5.6088885E2,1.1964443E3,1.1835555E3,1.8075554E3,1.7924443E3,2.2088887E2,1.9759999E3,5.9422217E2,1.4977777E2,1.3346666E3,6.853333E2,1.6337777E3,8.0622217E2,3.5199997E2,1.8622221E2,4.9866663E2,2.0119999E3,1.04888885E2,2.2933331E2,1.1199999E2,5.333333E1,9.5288885E2,3.302222E2,1.7422221E2,4.8399997E2,1.6533333E2,7.022222E1,3.1555553E1,3.822222E1,5.5999996E1,6.133333E1,6.724444E2,7.6622217E2,2.5422221E2,4.1599997E2,2.0399998E2,5.6444443E1,3.142222E2,1.4933333E2,1.2844443E3,1.3648888E3,4.6311108E2,4.3644443E2,5.853333E2,3.1599997E2,1.7053333E3,5.911111E2,2.3795554E3,5.773333E2,1.0937777E3,3.662222E2,1.1177777E3,5.533333E2,3.6577777E2,1.951111E2,9.066666E2,2.8977777E2,8.915555E2,2.9199997E2,1.3764443E3,4.3111108E2,3.0977777E2,1.4826666E3,1.04444435E2,1.16444435E2,1.3333333E3,6.426666E2,5.1999994E2,7.422222E1,1.1866666E2,3.1111109E1],"tree_param":{"num_deleted":"0","num_feature":"11","num_nodes":"125","size_leaf_vector":"1"}},{"base_weights":[4.538972E-3,1.5759945E-2,8.349336E-4,2.6561463E-2,-1.7213278E-2,-3.0716632E-3,1.3622704E-2,3.4382883E-2,1.1347875E-2,-2.99284E-2,2.03887E-2,-2.1017094E-3,-2.4785664E-2,2.4028195E-2,-7.7752564E-3,4.278191E-2,8.883351E-3,2.0540748E-2,-1.683161E-2,-3.7474997E-2,3.400256E-2,-3.1918474E-2,4.5405507E-2,-3.675451E-3,1.3435611E-2,5.6114374E-4,-1.0383893E-1,3.397933E-2,-6.9617E-3,1.54126175E-2,-7.7706225E-2,7.0394106E-2,3.0815363E-2,-5.34318E-2,1.6520767E-2,9.281704E-3,4.2304937E-2,2.0414556E-3,-5.2316412E-2,-5.6665596E-2,-7.362538E-4,8.7384336E-2,-6.680152E-2,1.2662803E-2,-5.95388E-2,3.1037502E-2,7.398998E-2,-9.0044143E-4,-1.1728472E-2,-2.8497989E-3,6.1045915E-2,2.608213E-2,-2.375136E-2,-5.354122E-2,-1.5037231E-1,2.1295764E-2,4.6861455E-2,4.7631245E-2,-5.0496098E-2,-9.375168E-4,3.1048356E-2,-1.831166E-1,-5.9121896E-2,2.6759055E-2,9.972311E-3,5.2003823E-3,1.7694013E-2,-3.1808484E-2,1.2070909E-2,2.7237581E-2,2.0509365E-3,8.770621E-3,-9.954885E-3,3.6635514E-2,6.41703E-4,1.7681414E-2,-7.4188514E-3,-3.5366904E-2,-5.847998E-3,1.9332264E-4,-1.912871E-2,-3.8300276E-2,4.4847606E-3,4.5857254E-2,-1.4000911E-3,-3.958761E-2,2.5965534E-2,-3.0881562E-3,1.7817806E-2,-3.5755813E-2,-3.1686455E-3,-5.37662E-3,2.8395643E-2,4.6635542E-2,-1.1495501E-2,1.2923824E-3,-4.8906803E-3,-8.076001E-3,3.1723585E-3,-5.770683E-3,1.4009863E-2,2.9709663E-2,-1.0804785E-2,2.0890854E-2,-2.040666E-2,-1.7384596E-2,1.535433E-2,-9.472325E-3,-2.2788592E-2,-3.360468E-2,-6.7194894E-2,3.3096774E-3,1.3698766E-2,4.107152E-3,2.4333468E-2,2.225022E-2,-1.1186121E-2,-3.2386028E-3,-2.7015246E-2,4.358551E-3,-2.8073223E-2,-1.8442306E-4,3.530524E-2,-6.30569E-2,-4.5567736E-2,1.047311E-2,-2.3401542E-2],"categories":[],"categories_nodes":[],"categories_segments":[],"categories_sizes":[],"default_left":[0,0,0,0,0,0,0,0,0,0,0,0,0,0,0,0,0,0,0,0,0,0,0,0,0,0,0,0,0,0,0,0,0,0,0,0,0,0,0,0,0,0,0,0,0,0,0,0,0,0,0,0,0,0,0,0,0,0,0,0,0,0,0,0,0,0,0,0,0,0,0,0,0,0,0,0,0,0,0,0,0,0,0,0,0,0,0,0,0,0,0,0,0,0,0,0,0,0,0,0,0,0,0,0,0,0,0,0,0,0,0,0,0,0,0,0,0,0,0,0,0,0,0,0,0,0,0],"id":3,"left_children":[1,3,5,7,9,11,13,15,17,19,21,23,25,27,29,31,33,35,37,39,41,43,45,47,49,51,53,55,57,59,61,63,65,67,69,71,73,75,77,79,81,83,85,87,89,91,93,95,97,99,101,103,105,107,109,111,113,115,117,119,121,123,125,-1,-1,-1,-1,-1,-1,-1,-1,-1,-1,-1,-1,-1,-1,-1,-1,-1,-1,-1,-1,-1,-1,-1,-1,-1,-1,-1,-1,-1,-1,-1,-1,-1,-1,-1,-1,-1,-1,-1,-1,-1,-1,-1,-1,-1,-1,-1,-1,-1,-1,-1,-1,-1,-1,-1,-1,-1,-1,-1,-1,-1,-1,-1,-1],"loss_changes":[1.4789907E0,3.1457977E0,1.3366059E0,7.9120255E-1,1.0427707E0,4.315955E-1,1.3942188E0,9.405141E-1,5.8588123E-1,7.8735876E-1,7.230056E-1,4.7977546E-1,1.7558296E0,1.2993703E0,3.3240936E0,1.0896883E0,5.195282E-1,4.1735137E-1,3.7282768E-1,1.0277445E0,9.343353E-1,2.2114964E-1,1.510703E-1,3.981199E-1,1.3994118E0,4.129273E-1,4.8988223E-1,5.20046E-1,2.4379492E0,3.9366382E-1,9.8912954E-1,6.944313E-1,8.7494683E-1,5.915975E-1,6.9817644E-1,9.540628E-1,1.8621347E0,5.5631053E-1,4.1367918E-1,3.89498E-1,9.998003E-1,6.8321145E-1,6.140008E-1,7.4948594E-2,3.2210815E-1,7.8106177E-1,1.142168E0,1.0630425E0,1.5472265E0,1.0934335E0,1.6996084E0,1.3354332E0,8.7633866E-1,4.8719317E-2,2.853632E-1,4.018098E-1,1.7953618E0,1.0284172E0,8.9509404E-1,1.0811764E0,2.1592262E0,3.2343626E-2,7.758657E-1,0E0,0E0,0E0,0E0,0E0,0E0,0E0,0E0,0E0,0E0,0E0,0E0,0E0,0E0,0E0,0E0,0E0,0E0,0E0,0E0,0E0,0E0,0E0,0E0,0E0,0E0,0E0,0E0,0E0,0E0,0E0,0E0,0E0,0E0,0E0,0E0,0E0,0E0,0E0,0E0,0E0,0E0,0E0,0E0,0E0,0E0,0E0,0E0,0E0,0E0,0E0,0E0,0E0,0E0,0E0,0E0,0E0,0E0,0E0,0E0,0E0,0E0,0E0,0E0],"parents":[2147483647,0,0,1,1,2,2,3,3,4,4,5,5,6,6,7,7,8,8,9,9,10,10,11,11,12,12,13,13,14,14,15,15,16,16,17,17,18,18,19,19,20,20,21,21,22,22,23,23,24,24,25,25,26,26,27,27,28,28,29,29,30,30,31,31,32,32,33,33,34,34,35,35,36,36,37,37,38,38,39,39,40,40,41,41,42,42,43,43,44,44,45,45,46,46,47,47,48,48,49,49,50,50,51,51,52,52,53,53,54,54,55,55,56,56,57,57,58,58,59,59,60,60,61,61,62,62],"right_children":[2,4,6,8,10,12,14,16,18,20,22,24,26,28,30,32,34,36,38,40,42,44,46,48,50,52,54,56,58,60,62,64,66,68,70,72,74,76,78,80,82,84,86,88,90,92,94,96,98,100,102,104,106,108,110,112,114,116,118,120,122,124,126,-1,-1,-1,-1,-1,-1,-1,-1,-1,-1,-1,-1,-1,-1,-1,-1,-1,-1,-1,-1,-1,-1,-1,-1,-1,-1,-1,-1,-1,-1,-1,-1,-1,-1,-1,-1,-1,-1,-1,-1,-1,-1,-1,-1,-1,-1,-1,-1,-1,-1,-1,-1,-1,-1,-1,-1,-1,-1,-1,-1,-1,-1,-1,-1],"split_conditions":[3E1,1E0,5.3E1,1E0,1E0,5.2E1,1E0,1E0,1E0,2.9E1,2.3E1,5E1,1E0,1E0,1E0,2.3E1,2.1E1,1E0,1E0,1E0,1E0,2.1E1,1E0,1E0,1E0,1E0,1E0,1E0,5.6E1,1E0,5.4E1,1E0,1E0,1E0,2.2E1,1E0,2.3E1,2.3E1,2.3E1,2.1E1,2.1E1,1E0,1E0,1E0,2.2E1,2.7E1,2.7E1,4.5E1,4.2E1,1E0,1E0,1E0,1E0,1E0,1E0,5.8E1,1E0,1E0,1E0,5.9E1,5.8E1,1E0,5.5E1,2.6759055E-2,9.972311E-3,5.2003823E-3,1.7694013E-2,-3.1808484E-2,1.2070909E-2,2.7237581E-2,2.0509365E-3,8.770621E-3,-9.954885E-3,3.6635514E-2,6.41703E-4,1.7681414E-2,-7.4188514E-3,-3.5366904E-2,-5.847998E-3,1.9332264E-4,-1.912871E-2,-3.8300276E-2,4.4847606E-3,4.5857254E-2,-1.4000911E-3,-3.958761E-2,2.5965534E-2,-3.0881562E-3,1.7817806E-2,-3.5755813E-2,-3.1686455E-3,-5.37662E-3,2.8395643E-2,4.6635542E-2,-1.1495501E-2,1.2923824E-3,-4.8906803E-3,-8.076001E-3,3.1723585E-3,-5.770683E-3,1.4009863E-2,2.9709663E-2,-1.0804785E-2,2.0890854E-2,-2.040666E-2,-1.7384596E-2,1.535433E-2,-9.472325E-3,-2.2788592E-2,-3.360468E-2,-6.7194894E-2,3.3096774E-3,1.3698766E-2,4.107152E-3,2.4333468E-2,2.225022E-2,-1.1186121E-2,-3.2386028E-3,-2.7015246E-2,4.358551E-3,-2.8073223E-2,-1.8442306E-4,3.530524E-2,-6.30569E-2,-4.5567736E-2,1.047311E-2,-2.3401542E-2],"split_indices":[0,5,0,1,10,0,3,9,8,0,0,0,10,9,7,0,0,4,4,9,1,0,1,4,4,6,6,6,0,6,0,4,7,4,0,7,0,0,0,0,0,9,8,3,0,0,0,0,0,10,7,9,9,4,2,0,1,5,1,0,0,6,0,0,0,0,0,0,0,0,0,0,0,0,0,0,0,0,0,0,0,0,0,0,0,0,0,0,0,0,0,0,0,0,0,0,0,0,0,0,0,0,0,0,0,0,0,0,0,0,0,0,0,0,0,0,0,0,0,0,0,0,0,0,0,0,0],"split_type":[0,0,0,0,0,0,0,0,0,0,0,0,0,0,0,0,0,0,0,0,0,0,0,0,0,0,0,0,0,0,0,0,0,0,0,0,0,0,0,0,0,0,0,0,0,0,0,0,0,0,0,0,0,0,0,0,0,0,0,0,0,0,0,0,0,0,0,0,0,0,0,0,0,0,0,0,0,0,0,0,0,0,0,0,0,0,0,0,0,0,0,0,0,0,0,0,0,0,0,0,0,0,0,0,0,0,0,0,0,0,0,0,0,0,0,0,0,0,0,0,0,0,0,0,0,0,0],"sum_hessian":[3.5583703E4,8.830234E3,2.6753469E4,6.6515E3,2.1787341E3,2.0493555E4,6.259914E3,4.392185E3,2.2593152E3,1.6283209E3,5.5041315E2,1.9618312E4,8.7524365E2,4.211705E3,2.0482087E3,3.3034258E3,1.0887592E3,1.7037721E3,5.5554315E2,1.456773E3,1.7154794E2,1.7798717E2,3.7242593E2,1.7814666E4,1.8036456E3,6.6349915E2,2.1174449E2,3.187934E3,1.0237711E3,1.5387621E3,5.0944672E2,9.973074E2,2.3061184E3,1.1821597E2,9.705432E2,1.1238229E3,5.7994916E2,3.6327368E2,1.9226949E2,9.5656555E2,5.002074E2,1.1224216E2,5.9305794E1,6.829517E1,1.09692E2,2.4923409E2,1.23191864E2,1.3249947E4,4.5647188E3,1.3446423E3,4.5900336E2,3.23669E2,3.3983014E2,1.0278994E2,1.08954544E2,1.6076835E3,1.5802507E3,4.541564E2,5.696147E2,7.526566E2,7.8610547E2,7.502898E1,4.3441776E2,6.612538E2,3.3605362E2,1.5607133E3,7.454051E2,7.562124E1,4.259474E1,1.10986626E2,8.595566E2,7.647748E2,3.5904816E2,1.9346863E2,3.8648053E2,1.1585158E2,2.474221E2,6.3272785E1,1.289967E2,1.0550101E2,8.510645E2,5.4229237E1,4.4597818E2,6.520403E1,4.7038124E1,4.1719433E1,1.7586359E1,4.6319725E1,2.1975447E1,4.8811886E1,6.0880116E1,1.4124576E2,1.0798833E2,7.117881E1,5.2013058E1,9.902106E3,3.347841E3,2.7151243E3,1.8495946E3,1.0109396E3,3.3370273E2,3.298805E2,1.2912286E2,2.2144037E2,1.0222864E2,2.3349539E2,1.0633476E2,5.3137024E1,4.965292E1,7.3287796E1,3.5666744E1,1.1322306E3,4.7545282E2,8.0348334E2,7.767674E2,3.4612296E2,1.0803347E2,2.8491785E2,2.8469684E2,6.457014E2,1.06955215E2,5.764288E2,2.096767E2,3.711585E1,3.7913124E1,7.2507195E1,3.6191055E2],"tree_param":{"num_deleted":"0","num_feature":"11","num_nodes":"127","size_leaf_vector":"1"}},{"base_weights":[1.24933E-3,-1.5214866E-2,2.1394535E-3,-1.6953277E-3,-5.3675767E-2,7.2835432E-3,-1.959326E-3,-2.40051E-2,4.534314E-2,-6.9011346E-2,-7.485483E-3,1.3521909E-2,-1.1390308E-2,2.6860016E-3,-1.5877534E-2,-4.236657E-3,-6.633858E-2,1.20782666E-1,-3.1395793E-2,-3.9381072E-2,-1.0029802E-1,1.6085522E-3,-2.6740327E-2,3.3471193E-3,2.2520304E-2,-4.1186595E-3,-3.3086915E-2,2.6155027E-4,1.729975E-2,-6.58625E-2,-7.335054E-3,2.2920402E-2,-3.379484E-2,-1.19643055E-1,-1.2440234E-2,9.689599E-2,1.9174725E-1,-9.9649675E-2,1.7811559E-1,-2.9068347E-2,-5.6255884E-2,-1.356923E-1,-3.0882511E-2,-4.063818E-2,5.840102E-2,9.682584E-3,-3.1760596E-2,-5.6865695E-3,3.0305691E-2,3.518007E-2,-1.658705E-2,-2.5221217E-2,9.954916E-3,4.4259958E-2,-6.298603E-2,6.7850593E-3,-1.2946685E-2,-2.0498687E-3,5.882424E-2,-3.6833234E-2,-1.5966961E-1,-2.0171389E-2,2.9562755E-2,-6.3522155E-3,1.9674044E-2,5.358004E-3,-2.4258727E-2,-5.8509316E-2,-1.7296236E-2,-2.66489E-2,1.9663516E-2,3.9071392E-2,8.298446E-3,8.1211045E-2,1.8170001E-2,-4.283098E-2,-6.409992E-3,1.030908E-1,-5.5808533E-2,-1.8887874E-2,8.8095E-3,5.147611E-3,-5.373275E-2,-3.278496E-2,-5.4498907E-2,-4.119011E-2,5.5573624E-2,-4.5460104E-3,-1.8461991E-2,7.2745383E-3,2.9252872E-2,-6.108429E-3,6.860569E-3,3.5286736E-2,5.2610883E-3,1.4351179E-2,3.0075528E-3,-6.248326E-4,-3.9325174E-2,3.1698763E-3,-1.1931553E-2,3.864134E-2,-1.2594218E-3,-1.0493902E-2,1.8736186E-2,-3.965105E-2,-1.2737153E-2,4.775393E-3,-6.339286E-3,8.690334E-3,-5.469249E-3,3.634196E-3,-9.112276E-3,2.2699077E-2,7.827219E-3,-1.7506465E-2,2.0260052E-3,-5.483659E-2,-3.2662254E-2,-5.192208E-3,-2.0756278E-2,-6.8930525E-4,1.8756244E-2],"categories":[],"categories_nodes":[],"categories_segments":[],"categories_sizes":[],"default_left":[0,0,0,0,0,0,0,0,0,0,0,0,0,0,0,0,0,0,0,0,0,0,0,0,0,0,0,0,0,0,0,0,0,0,0,0,0,0,0,0,0,0,0,0,0,0,0,0,0,0,0,0,0,0,0,0,0,0,0,0,0,0,0,0,0,0,0,0,0,0,0,0,0,0,0,0,0,0,0,0,0,0,0,0,0,0,0,0,0,0,0,0,0,0,0,0,0,0,0,0,0,0,0,0,0,0,0,0,0,0,0,0,0,0,0,0,0,0,0,0,0,0,0],"id":4,"left_children":[1,3,5,7,9,11,13,15,17,19,21,23,25,27,29,31,33,35,37,39,41,43,45,47,49,51,53,55,57,59,61,63,65,67,69,71,73,75,77,79,81,83,85,87,89,-1,-1,91,93,95,97,99,101,103,105,107,109,111,113,115,117,119,121,-1,-1,-1,-1,-1,-1,-1,-1,-1,-1,-1,-1,-1,-1,-1,-1,-1,-1,-1,-1,-1,-1,-1,-1,-1,-1,-1,-1,-1,-1,-1,-1,-1,-1,-1,-1,-1,-1,-1,-1,-1,-1,-1,-1,-1,-1,-1,-1,-1,-1,-1,-1,-1,-1,-1,-1,-1,-1,-1,-1],"loss_changes":[5.212053E-1,9.4842416E-1,7.113886E-1,1.4185878E0,3.355348E-1,1.7431395E0,1.2141433E0,7.670071E-1,2.521439E0,3.2611132E-1,2.0945322E-2,1.0268021E0,5.910647E-1,4.9885598E-1,2.0060549E0,5.03329E-1,8.368268E-1,3.5351038E-1,3.1120088E0,3.047368E-2,4.1970825E-1,1.9916603E-1,1.8250236E-1,1.2823788E0,2.947249E0,8.341167E-1,2.177773E0,1.0407375E0,1.6099031E0,1.8615339E0,1.901969E0,6.1627537E-1,7.3127735E-1,6.737857E-1,8.767847E-1,3.801726E-1,5.455818E-1,5.5004907E-1,3.2903123E0,2.327401E-1,6.246582E-1,1.185174E-1,1.3952873E0,2.4435371E-2,4.4914708E-2,0E0,0E0,1.6533195E0,1.4714339E0,1.4311867E0,2.4180298E0,5.855267E-1,2.8350248E0,3.81041E-1,9.5833397E-1,2.061706E0,8.8497216E-1,5.490378E-1,3.4907794E-1,4.9286777E-1,1.7006159E-1,4.169941E-1,1.0885606E0,0E0,0E0,0E0,0E0,0E0,0E0,0E0,0E0,0E0,0E0,0E0,0E0,0E0,0E0,0E0,0E0,0E0,0E0,0E0,0E0,0E0,0E0,0E0,0E0,0E0,0E0,0E0,0E0,0E0,0E0,0E0,0E0,0E0,0E0,0E0,0E0,0E0,0E0,0E0,0E0,0E0,0E0,0E0,0E0,0E0,0E0,0E0,0E0,0E0,0E0,0E0,0E0,0E0,0E0,0E0,0E0,0E0,0E0,0E0,0E0],"parents":[2147483647,0,0,1,1,2,2,3,3,4,4,5,5,6,6,7,7,8,8,9,9,10,10,11,11,12,12,13,13,14,14,15,15,16,16,17,17,18,18,19,19,20,20,21,21,22,22,23,23,24,24,25,25,26,26,27,27,28,28,29,29,30,30,31,31,32,32,33,33,34,34,35,35,36,36,37,37,38,38,39,39,40,40,41,41,42,42,43,43,44,44,47,47,48,48,49,49,50,50,51,51,52,52,53,53,54,54,55,55,56,56,57,57,58,58,59,59,60,60,61,61,62,62],"right_children":[2,4,6,8,10,12,14,16,18,20,22,24,26,28,30,32,34,36,38,40,42,44,46,48,50,52,54,56,58,60,62,64,66,68,70,72,74,76,78,80,82,84,86,88,90,-1,-1,92,94,96,98,100,102,104,106,108,110,112,114,116,118,120,122,-1,-1,-1,-1,-1,-1,-1,-1,-1,-1,-1,-1,-1,-1,-1,-1,-1,-1,-1,-1,-1,-1,-1,-1,-1,-1,-1,-1,-1,-1,-1,-1,-1,-1,-1,-1,-1,-1,-1,-1,-1,-1,-1,-1,-1,-1,-1,-1,-1,-1,-1,-1,-1,-1,-1,-1,-1,-1,-1,-1],"split_conditions":[2.2E1,1E0,3.9E1,1E0,1E0,1E0,1E0,1E0,2.1E1,2.1E1,1E0,3E1,1E0,5.7E1,4.2E1,1E0,1E0,1E0,1E0,1E0,1E0,2.1E1,2.1E1,1E0,1E0,2.9E1,2.7E1,1E0,1E0,1E0,1E0,2.1E1,2.1E1,2.1E1,1E0,1E0,1E0,1E0,1E0,1E0,1E0,1E0,1E0,1E0,1E0,9.682584E-3,-3.1760596E-2,1E0,2.3E1,1E0,3.8E1,2.4E1,3E1,2.3E1,3E1,1E0,4.1E1,5.9E1,1E0,1E0,1E0,5.9E1,5.1E1,-6.3522155E-3,1.9674044E-2,5.358004E-3,-2.4258727E-2,-5.8509316E-2,-1.7296236E-2,-2.66489E-2,1.9663516E-2,3.9071392E-2,8.298446E-3,8.1211045E-2,1.8170001E-2,-4.283098E-2,-6.409992E-3,1.030908E-1,-5.5808533E-2,-1.8887874E-2,8.8095E-3,5.147611E-3,-5.373275E-2,-3.278496E-2,-5.4498907E-2,-4.119011E-2,5.5573624E-2,-4.5460104E-3,-1.8461991E-2,7.2745383E-3,2.9252872E-2,-6.108429E-3,6.860569E-3,3.5286736E-2,5.2610883E-3,1.4351179E-2,3.0075528E-3,-6.248326E-4,-3.9325174E-2,3.1698763E-3,-1.1931553E-2,3.864134E-2,-1.2594218E-3,-1.0493902E-2,1.8736186E-2,-3.965105E-2,-1.2737153E-2,4.775393E-3,-6.339286E-3,8.690334E-3,-5.469249E-3,3.634196E-3,-9.112276E-3,2.2699077E-2,7.827219E-3,-1.7506465E-2,2.0260052E-3,-5.483659E-2,-3.2662254E-2,-5.192208E-3,-2.0756278E-2,-6.8930525E-4,1.8756244E-2],"split_indices":[0,10,0,3,5,8,10,7,0,0,1,0,5,0,0,6,6,5,4,4,1,0,0,5,5,0,0,9,9,5,5,0,0,0,1,8,9,5,8,2,2,4,4,2,2,0,0,10,0,3,0,0,0,0,0,5,0,0,2,1,2,0,0,0,0,0,0,0,0,0,0,0,0,0,0,0,0,0,0,0,0,0,0,0,0,0,0,0,0,0,0,0,0,0,0,0,0,0,0,0,0,0,0,0,0,0,0,0,0,0,0,0,0,0,0,0,0,0,0,0,0,0,0],"split_type":[0,0,0,0,0,0,0,0,0,0,0,0,0,0,0,0,0,0,0,0,0,0,0,0,0,0,0,0,0,0,0,0,0,0,0,0,0,0,0,0,0,0,0,0,0,0,0,0,0,0,0,0,0,0,0,0,0,0,0,0,0,0,0,0,0,0,0,0,0,0,0,0,0,0,0,0,0,0,0,0,0,0,0,0,0,0,0,0,0,0,0,0,0,0,0,0,0,0,0,0,0,0,0,0,0,0,0,0,0,0,0,0,0,0,0,0,0,0,0,0,0,0,0],"sum_hessian":[3.5561383E4,1.82316E3,3.3738223E4,1.3497488E3,4.7341125E2,1.4960978E4,1.8777246E4,9.1585803E2,4.338907E2,3.550406E2,1.1837067E2,1.1214747E4,3.74623E3,1.4079045E4,4.6982017E3,6.2506964E2,2.9078842E2,2.1850835E2,2.1538232E2,1.8350734E2,1.7153326E2,8.102102E1,3.7349648E1,5.26397E3,5.9507773E3,2.8067378E3,9.3949225E2,1.207654E4,2.0025052E3,6.847552E2,4.0134465E3,3.2588348E2,2.9918616E2,1.4558635E2,1.4520206E2,1.6525047E2,5.3257874E1,1.6285301E2,5.2529312E1,1.1558953E2,6.79178E1,1.12974106E2,5.8559166E1,4.6623333E1,3.4397682E1,2.1732899E1,1.5616749E1,3.9433586E3,1.3206116E3,4.495577E3,1.4552002E3,1.1226273E3,1.6841104E3,2.617872E2,6.777051E2,8.0842427E3,3.9922976E3,1.3666316E3,6.358736E2,5.239942E2,1.60761E2,2.977916E3,1.0355304E3,1.6049474E2,1.6538875E2,1.4293788E2,1.5624828E2,6.472485E1,8.08615E1,7.3281296E1,7.192076E1,1.1094192E2,5.4308556E1,3.2582947E1,2.0674927E1,1.04479385E2,5.837364E1,3.6152596E1,1.6376717E1,7.3109E1,4.2480534E1,4.3051464E1,2.4866337E1,7.389843E1,3.9075672E1,3.9483074E1,1.9076092E1,2.1785736E1,2.4837597E1,1.9227127E1,1.5170556E1,2.604935E3,1.3384236E3,1.6743365E2,1.1531779E3,2.9901309E3,1.505446E3,1.2924882E3,1.627121E2,3.245834E2,7.980439E2,1.7834656E2,1.5057639E3,4.8711807E1,2.130754E2,1.5383357E2,5.2387146E2,6.091723E3,1.9925194E3,4.46458E2,3.5458396E3,9.114336E2,4.55198E2,4.1900842E2,2.1686517E2,3.5056006E2,1.7343411E2,1.08692314E2,5.2068695E1,2.8147998E3,1.6311635E2,5.2700586E2,5.085245E2],"tree_param":{"num_deleted":"0","num_feature":"11","num_nodes":"123","size_leaf_vector":"1"}},{"base_weights":[-5.7990877E-3,-1.509082E-2,-3.0108335E-4,-2.0302061E-2,6.172757E-4,9.208067E-3,-1.4648718E-2,-1.5960695E-2,-3.367708E-2,4.414909E-2,-6.4697885E-3,1.8053275E-2,2.0545992E-4,-2.0579735E-2,-2.6320103E-3,-1.1357315E-2,-3.414418E-2,-4.783448E-2,-2.6508091E-2,8.791362E-2,-4.6073306E-2,-1.9070007E-2,2.9821672E-2,3.688308E-2,2.019311E-3,-1.3560062E-2,2.729688E-2,-1.3490266E-2,-4.1951995E-2,-1.3549416E-2,2.9371206E-2,-2.5014565E-3,-2.85908E-2,-1.8439328E-2,-6.715438E-2,-3.2433163E-2,-1.1151865E-1,5.6406554E-2,-3.6804408E-2,5.982643E-2,1.7846628E-1,1.0106969E-3,-6.267698E-2,-9.07382E-2,-1.2871733E-2,7.4757606E-2,4.3389504E-3,2.7356636E-2,9.512305E-2,-1.7962428E-2,1.3779813E-2,-5.220947E-3,-3.049638E-2,3.90732E-2,3.8548687E-3,3.1582866E-2,-1.875257E-2,6.798007E-3,-8.909285E-2,-8.338581E-2,-5.8064503E-3,1.0925926E-2,1.00783184E-1,-7.734534E-3,1.6343616E-3,9.2018466E-4,-1.0580782E-2,-1.87742E-3,-1.28447795E-2,-4.4672094E-2,-7.901594E-3,-1.5560034E-2,7.967555E-3,-2.3173412E-2,-5.062125E-2,3.2897003E-2,-1.262433E-2,-7.6741986E-3,-1.7466746E-2,2.2402681E-2,7.251181E-3,3.717606E-2,6.561867E-2,-1.2939617E-2,1.2271999E-2,-4.0658757E-2,4.4113803E-3,-8.537931E-3,5.9365793E-3,2.0511417E-2,2.885817E-2,6.881838E-3,-9.515328E-3,2.225824E-2,5.289024E-3,3.535289E-2,6.348831E-3,-1.5352787E-2,1.3020115E-2,1.947347E-2,2.780305E-4,5.834962E-4,-8.0214245E-3,-6.184874E-3,-1.799608E-2,9.113825E-3,1.9111723E-2,4.9665193E-3,-1.0204558E-2,-6.9817377E-4,2.974111E-2,-9.364589E-3,-1.6423531E-3,1.833545E-2,-1.4550307E-2,-5.7714798E-2,-2.3163266E-2,1.7725189E-4,-4.7911707E-2,9.909961E-4,-7.424724E-3,6.636351E-3,-2.0203184E-2,2.4837874E-2,4.925239E-2],"categories":[],"categories_nodes":[],"categories_segments":[],"categories_sizes":[],"default_left":[0,0,0,0,0,0,0,0,0,0,0,0,0,0,0,0,0,0,0,0,0,0,0,0,0,0,0,0,0,0,0,0,0,0,0,0,0,0,0,0,0,0,0,0,0,0,0,0,0,0,0,0,0,0,0,0,0,0,0,0,0,0,0,0,0,0,0,0,0,0,0,0,0,0,0,0,0,0,0,0,0,0,0,0,0,0,0,0,0,0,0,0,0,0,0,0,0,0,0,0,0,0,0,0,0,0,0,0,0,0,0,0,0,0,0,0,0,0,0,0,0,0,0,0,0],"id":5,"left_children":[1,3,5,7,9,11,13,15,17,19,21,23,25,27,29,31,33,35,37,39,41,43,45,47,49,51,53,55,57,59,61,63,65,67,69,71,73,75,77,79,81,83,-1,85,87,89,91,93,95,97,99,101,103,105,107,109,111,113,115,117,119,121,123,-1,-1,-1,-1,-1,-1,-1,-1,-1,-1,-1,-1,-1,-1,-1,-1,-1,-1,-1,-1,-1,-1,-1,-1,-1,-1,-1,-1,-1,-1,-1,-1,-1,-1,-1,-1,-1,-1,-1,-1,-1,-1,-1,-1,-1,-1,-1,-1,-1,-1,-1,-1,-1,-1,-1,-1,-1,-1,-1,-1,-1,-1],"loss_changes":[1.8142484E0,1.0807116E0,3.0443416E0,5.750847E-1,1.0152118E0,1.0686003E0,6.3383806E-1,6.2622666E-1,2.4519348E-1,1.8232163E0,1.2946808E0,2.0435898E0,2.4809535E0,9.016912E-1,1.0277113E0,9.118378E-1,7.8251135E-1,7.958034E-1,1.3802063E0,7.7923393E-1,1.159111E0,9.3226314E-1,8.3528703E-1,1.7245607E0,8.596156E-1,6.228579E-1,6.1861336E-1,1.0615354E0,3.4082313E0,1.1853999E0,9.8445857E-1,7.30771E-1,4.2891002E-1,3.0433205E-1,1.6210952E0,7.5542206E-1,2.9744077E-1,9.418636E-1,3.438474E-1,1.2449974E-1,1.3326526E-1,2.0999713E-1,0E0,7.9118633E-1,9.8578626E-1,2.9565334E-2,3.137466E-1,1.2181547E0,7.3219275E-1,2.7645009E0,1.5132194E0,4.5600063E-1,4.2276406E-1,3.175366E-1,3.615655E-1,1.0723121E0,6.6274464E-1,2.1954243E0,9.104047E-1,1.4024621E0,3.409391E-1,5.235144E-1,1.6142571E-1,0E0,0E0,0E0,0E0,0E0,0E0,0E0,0E0,0E0,0E0,0E0,0E0,0E0,0E0,0E0,0E0,0E0,0E0,0E0,0E0,0E0,0E0,0E0,0E0,0E0,0E0,0E0,0E0,0E0,0E0,0E0,0E0,0E0,0E0,0E0,0E0,0E0,0E0,0E0,0E0,0E0,0E0,0E0,0E0,0E0,0E0,0E0,0E0,0E0,0E0,0E0,0E0,0E0,0E0,0E0,0E0,0E0,0E0,0E0,0E0,0E0,0E0],"parents":[2147483647,0,0,1,1,2,2,3,3,4,4,5,5,6,6,7,7,8,8,9,9,10,10,11,11,12,12,13,13,14,14,15,15,16,16,17,17,18,18,19,19,20,20,21,21,22,22,23,23,24,24,25,25,26,26,27,27,28,28,29,29,30,30,31,31,32,32,33,33,34,34,35,35,36,36,37,37,38,38,39,39,40,40,41,41,43,43,44,44,45,45,46,46,47,47,48,48,49,49,50,50,51,51,52,52,53,53,54,54,55,55,56,56,57,57,58,58,59,59,60,60,61,61,62,62],"right_children":[2,4,6,8,10,12,14,16,18,20,22,24,26,28,30,32,34,36,38,40,42,44,46,48,50,52,54,56,58,60,62,64,66,68,70,72,74,76,78,80,82,84,-1,86,88,90,92,94,96,98,100,102,104,106,108,110,112,114,116,118,120,122,124,-1,-1,-1,-1,-1,-1,-1,-1,-1,-1,-1,-1,-1,-1,-1,-1,-1,-1,-1,-1,-1,-1,-1,-1,-1,-1,-1,-1,-1,-1,-1,-1,-1,-1,-1,-1,-1,-1,-1,-1,-1,-1,-1,-1,-1,-1,-1,-1,-1,-1,-1,-1,-1,-1,-1,-1,-1,-1,-1,-1,-1,-1],"split_conditions":[3.5E1,1E0,5E1,1E0,2.2E1,1E0,1E0,3.2E1,2.5E1,1E0,1E0,4.2E1,4.5E1,1E0,1E0,1E0,1E0,2.4E1,2.6E1,1E0,1E0,2.3E1,2.7E1,4.1E1,4.5E1,1E0,1E0,5.1E1,1E0,5.1E1,5.8E1,2.3E1,2.2E1,1E0,3.3E1,2.3E1,1E0,1E0,1E0,1E0,2.1E1,2.1E1,-6.267698E-2,1E0,1E0,2.6E1,1E0,3.6E1,1E0,1E0,4.6E1,1E0,1E0,1E0,1E0,1E0,1E0,5.5E1,5.1E1,1E0,5.7E1,5.7E1,1E0,-7.734534E-3,1.6343616E-3,9.2018466E-4,-1.0580782E-2,-1.87742E-3,-1.28447795E-2,-4.4672094E-2,-7.901594E-3,-1.5560034E-2,7.967555E-3,-2.3173412E-2,-5.062125E-2,3.2897003E-2,-1.262433E-2,-7.6741986E-3,-1.7466746E-2,2.2402681E-2,7.251181E-3,3.717606E-2,6.561867E-2,-1.2939617E-2,1.2271999E-2,-4.0658757E-2,4.4113803E-3,-8.537931E-3,5.9365793E-3,2.0511417E-2,2.885817E-2,6.881838E-3,-9.515328E-3,2.225824E-2,5.289024E-3,3.535289E-2,6.348831E-3,-1.5352787E-2,1.3020115E-2,1.947347E-2,2.780305E-4,5.834962E-4,-8.0214245E-3,-6.184874E-3,-1.799608E-2,9.113825E-3,1.9111723E-2,4.9665193E-3,-1.0204558E-2,-6.9817377E-4,2.974111E-2,-9.364589E-3,-1.6423531E-3,1.833545E-2,-1.4550307E-2,-5.7714798E-2,-2.3163266E-2,1.7725189E-4,-4.7911707E-2,9.909961E-4,-7.424724E-3,6.636351E-3,-2.0203184E-2,2.4837874E-2,4.925239E-2],"split_indices":[0,5,0,7,0,6,3,0,0,3,8,0,0,8,7,10,9,0,0,7,8,0,0,0,0,2,2,0,1,0,0,0,0,1,0,0,2,4,2,9,0,0,0,7,1,0,1,0,8,3,0,10,8,8,8,7,1,0,0,6,0,0,5,0,0,0,0,0,0,0,0,0,0,0,0,0,0,0,0,0,0,0,0,0,0,0,0,0,0,0,0,0,0,0,0,0,0,0,0,0,0,0,0,0,0,0,0,0,0,0,0,0,0,0,0,0,0,0,0,0,0,0,0,0,0],"split_type":[0,0,0,0,0,0,0,0,0,0,0,0,0,0,0,0,0,0,0,0,0,0,0,0,0,0,0,0,0,0,0,0,0,0,0,0,0,0,0,0,0,0,0,0,0,0,0,0,0,0,0,0,0,0,0,0,0,0,0,0,0,0,0,0,0,0,0,0,0,0,0,0,0,0,0,0,0,0,0,0,0,0,0,0,0,0,0,0,0,0,0,0,0,0,0,0,0,0,0,0,0,0,0,0,0,0,0,0,0,0,0,0,0,0,0,0,0,0,0,0,0,0,0,0,0],"sum_hessian":[3.5512707E4,1.3201007E4,2.23117E4,9.912269E3,3.288738E3,1.3418625E4,8.893074E3,7.4849414E3,2.4273271E3,4.597185E2,2.8290195E3,6.7679746E3,6.65065E3,5.9537866E3,2.939288E3,5.9741377E3,1.510804E3,8.140531E2,1.613274E3,3.0957657E2,1.501419E2,2.1002852E3,7.2873425E2,3.112016E3,3.6559585E3,4.410244E3,2.240406E3,4.471996E3,1.4817903E3,2.1920728E3,7.4721533E2,3.9470117E3,2.0271259E3,1.0248041E3,4.8599985E2,6.567376E2,1.5731546E2,1.7771161E2,1.4355625E3,2.3755394E2,7.2022644E1,1.17238976E2,3.2902935E1,1.660998E2,1.9341853E3,2.6301065E2,4.657236E2,2.6757993E3,4.3621683E2,1.3543375E3,2.301621E3,2.9560503E3,1.4541937E3,1.4908143E3,7.4959155E2,4.670006E2,4.0049956E3,7.288828E2,7.529074E2,2.1780923E2,1.9742634E3,5.947484E2,1.5246689E2,1.0041182E3,2.9428936E3,3.5323245E2,1.6738934E3,6.8417224E2,3.406318E2,1.6095796E2,3.2504187E2,4.9409036E2,1.6264726E2,9.985346E1,5.7461994E1,1.1527274E2,6.2438858E1,9.433905E2,4.92172E2,1.669372E2,7.061675E1,3.231774E1,3.97049E1,5.561872E1,6.162025E1,1.1637823E2,4.972157E1,1.3093776E3,6.2480774E2,2.0586853E2,5.714212E1,3.0747226E2,1.5825136E2,4.5898135E2,2.2168179E3,3.3325168E2,1.0296515E2,8.78826E2,4.755115E2,4.615281E2,1.840093E3,2.218218E3,7.3783215E2,1.0905343E3,3.636594E2,1.1035588E3,3.8725546E2,5.617609E2,1.8783064E2,3.115684E2,1.554322E2,2.0652297E3,1.9397659E3,3.676427E2,3.612401E2,7.610819E1,6.7679926E2,1.0417507E2,1.13634155E2,1.3336962E3,6.4056726E2,5.20952E2,7.379641E1,1.2055878E2,3.1908121E1],"tree_param":{"num_deleted":"0","num_feature":"11","num_nodes":"125","size_leaf_vector":"1"}},{"base_weights":[3.5144305E-3,1.2305805E-2,6.0681155E-4,2.05709E-2,-1.3100871E-2,-2.455731E-3,1.06092915E-2,2.7020883E-2,7.995003E-3,-2.3720315E-2,1.811765E-2,4.7974E-4,-8.404798E-3,-1.4238599E-3,2.2455145E-2,3.3738412E-2,6.5420824E-3,1.5466398E-2,-1.500726E-2,-2.9679421E-2,2.6289614E-2,-2.5659854E-2,3.8869515E-2,1.6765259E-3,-2.57462E-2,-1.1898214E-2,2.202028E-3,-1.1967523E-2,2.9353691E-2,8.741154E-3,5.0526306E-2,5.4857366E-2,2.4537347E-2,-2.0314422E-2,2.4512086E-2,5.982837E-3,3.374421E-2,7.9215545E-4,-4.4883024E-2,-9.29551E-3,-5.429188E-2,7.079675E-2,-5.9107643E-2,1.2410369E-2,-4.9441673E-2,2.5529735E-2,6.5392464E-2,-9.3297585E-4,1.3308294E-2,1.7516477E-3,-1.1084768E-1,1.4811307E-2,-1.9305024E-2,-1.9391887E-2,2.6188252E-2,1.9778928E-2,-3.6245834E-2,-8.230129E-3,5.746199E-2,2.0484699E-2,-2.5174923E-2,6.594524E-2,2.562191E-3,2.1076893E-2,7.2817663E-3,3.3472807E-3,1.5179826E-2,4.3453583E-3,-1.7589062E-2,4.124696E-2,3.63835E-4,6.8047047E-3,-8.935005E-3,3.005153E-2,-1.8700171E-5,1.3887134E-2,-6.251791E-3,-3.0574564E-2,-4.9845185E-3,5.8771544E-3,-1.9770987E-2,-3.4650967E-2,-9.972624E-3,3.7101194E-2,-1.4130314E-3,-3.3568885E-2,1.8504828E-2,-1.3505402E-3,1.3887028E-2,-2.7063439E-2,6.9160936E-3,-4.8163743E-3,2.3699844E-2,4.001279E-2,-9.037546E-3,1.1008771E-3,-4.3601817E-3,-9.5947564E-4,1.9048775E-2,-5.413918E-3,1.6114572E-2,-4.4368804E-2,5.4731657E-4,-4.681091E-3,1.0254456E-2,-3.1882986E-2,-4.2655836E-3,-1.7527117E-3,-4.9584173E-2,3.1618867E-2,2.6452132E-3,1.2366301E-2,-7.37334E-3,-1.6837804E-2,3.4254862E-4,2.9635388E-2,-1.9085448E-2,8.634834E-3,3.4050535E-2,2.8359168E-3,1.3056307E-2,-3.735389E-2,-2.659157E-3,1.2241266E-2,2.891185E-2,2.9768914E-2,-1.1865929E-2],"categories":[],"categories_nodes":[],"categories_segments":[],"categories_sizes":[],"default_left":[0,0,0,0,0,0,0,0,0,0,0,0,0,0,0,0,0,0,0,0,0,0,0,0,0,0,0,0,0,0,0,0,0,0,0,0,0,0,0,0,0,0,0,0,0,0,0,0,0,0,0,0,0,0,0,0,0,0,0,0,0,0,0,0,0,0,0,0,0,0,0,0,0,0,0,0,0,0,0,0,0,0,0,0,0,0,0,0,0,0,0,0,0,0,0,0,0,0,0,0,0,0,0,0,0,0,0,0,0,0,0,0,0,0,0,0,0,0,0,0,0,0,0,0,0,0,0],"id":6,"left_children":[1,3,5,7,9,11,13,15,17,19,21,23,25,27,29,31,33,35,37,39,41,43,45,47,49,51,53,55,57,59,61,63,65,67,69,71,73,75,77,79,81,83,85,87,89,91,93,95,97,99,101,103,105,107,109,111,113,115,117,119,121,123,125,-1,-1,-1,-1,-1,-1,-1,-1,-1,-1,-1,-1,-1,-1,-1,-1,-1,-1,-1,-1,-1,-1,-1,-1,-1,-1,-1,-1,-1,-1,-1,-1,-1,-1,-1,-1,-1,-1,-1,-1,-1,-1,-1,-1,-1,-1,-1,-1,-1,-1,-1,-1,-1,-1,-1,-1,-1,-1,-1,-1,-1,-1,-1,-1],"loss_changes":[9.100917E-1,1.8584012E0,8.1964046E-1,5.4139256E-1,7.2070575E-1,3.577388E-1,8.9405864E-1,6.068721E-1,3.8949817E-1,4.840393E-1,5.0249684E-1,4.305956E-1,2.5081992E-1,1.0103289E0,1.2163056E0,6.443293E-1,5.2715975E-1,2.9624093E-1,2.6240194E-1,7.2666264E-1,6.6242015E-1,1.6188735E-1,1.3097441E-1,3.9824185E-1,1.4012792E0,1.0075663E0,8.6950135E-1,1.7880018E0,8.397364E-1,8.4670323E-1,7.6684093E-1,4.72821E-1,8.071219E-1,5.848774E-1,1.7220414E0,6.7392117E-1,1.3114951E0,3.5975438E-1,3.0830732E-1,1.2996469E0,8.4191656E-1,4.569217E-1,3.8872072E-1,3.9909508E-2,3.2672343E-1,5.5955327E-1,8.1453633E-1,6.7091745E-1,1.9918094E0,4.6751603E-1,6.1068106E-1,6.521101E-1,1.7620612E0,1.7454088E0,1.0932839E0,9.5737976E-1,9.7698724E-1,2.0263238E0,7.274245E-1,4.007694E-1,8.849969E-1,5.9641385E-1,1.035306E0,0E0,0E0,0E0,0E0,0E0,0E0,0E0,0E0,0E0,0E0,0E0,0E0,0E0,0E0,0E0,0E0,0E0,0E0,0E0,0E0,0E0,0E0,0E0,0E0,0E0,0E0,0E0,0E0,0E0,0E0,0E0,0E0,0E0,0E0,0E0,0E0,0E0,0E0,0E0,0E0,0E0,0E0,0E0,0E0,0E0,0E0,0E0,0E0,0E0,0E0,0E0,0E0,0E0,0E0,0E0,0E0,0E0,0E0,0E0,0E0,0E0,0E0,0E0,0E0],"parents":[2147483647,0,0,1,1,2,2,3,3,4,4,5,5,6,6,7,7,8,8,9,9,10,10,11,11,12,12,13,13,14,14,15,15,16,16,17,17,18,18,19,19,20,20,21,21,22,22,23,23,24,24,25,25,26,26,27,27,28,28,29,29,30,30,31,31,32,32,33,33,34,34,35,35,36,36,37,37,38,38,39,39,40,40,41,41,42,42,43,43,44,44,45,45,46,46,47,47,48,48,49,49,50,50,51,51,52,52,53,53,54,54,55,55,56,56,57,57,58,58,59,59,60,60,61,61,62,62],"right_children":[2,4,6,8,10,12,14,16,18,20,22,24,26,28,30,32,34,36,38,40,42,44,46,48,50,52,54,56,58,60,62,64,66,68,70,72,74,76,78,80,82,84,86,88,90,92,94,96,98,100,102,104,106,108,110,112,114,116,118,120,122,124,126,-1,-1,-1,-1,-1,-1,-1,-1,-1,-1,-1,-1,-1,-1,-1,-1,-1,-1,-1,-1,-1,-1,-1,-1,-1,-1,-1,-1,-1,-1,-1,-1,-1,-1,-1,-1,-1,-1,-1,-1,-1,-1,-1,-1,-1,-1,-1,-1,-1,-1,-1,-1,-1,-1,-1,-1,-1,-1,-1,-1,-1,-1,-1,-1],"split_conditions":[3E1,1E0,5.3E1,1E0,1E0,1E0,1E0,1E0,1E0,2.9E1,2.3E1,5.2E1,1E0,1E0,1E0,2.3E1,2.4E1,1E0,1E0,2.5E1,1E0,2.1E1,1E0,4.8E1,1E0,3.5E1,4.2E1,5.6E1,5.6E1,1E0,1E0,1E0,1E0,2.2E1,2.5E1,1E0,2.3E1,2.3E1,2.3E1,1E0,2.6E1,1E0,1E0,1E0,1E0,2.7E1,2.7E1,1E0,1E0,1E0,1E0,3.2E1,3.6E1,4.1E1,4.4E1,1E0,1E0,5.4E1,1E0,1E0,5.4E1,5.7E1,5.5E1,2.1076893E-2,7.2817663E-3,3.3472807E-3,1.5179826E-2,4.3453583E-3,-1.7589062E-2,4.124696E-2,3.63835E-4,6.8047047E-3,-8.935005E-3,3.005153E-2,-1.8700171E-5,1.3887134E-2,-6.251791E-3,-3.0574564E-2,-4.9845185E-3,5.8771544E-3,-1.9770987E-2,-3.4650967E-2,-9.972624E-3,3.7101194E-2,-1.4130314E-3,-3.3568885E-2,1.8504828E-2,-1.3505402E-3,1.3887028E-2,-2.7063439E-2,6.9160936E-3,-4.8163743E-3,2.3699844E-2,4.001279E-2,-9.037546E-3,1.1008771E-3,-4.3601817E-3,-9.5947564E-4,1.9048775E-2,-5.413918E-3,1.6114572E-2,-4.4368804E-2,5.4731657E-4,-4.681091E-3,1.0254456E-2,-3.1882986E-2,-4.2655836E-3,-1.7527117E-3,-4.9584173E-2,3.1618867E-2,2.6452132E-3,1.2366301E-2,-7.37334E-3,-1.6837804E-2,3.4254862E-4,2.9635388E-2,-1.9085448E-2,8.634834E-3,3.4050535E-2,2.8359168E-3,1.3056307E-2,-3.735389E-2,-2.659157E-3,1.2241266E-2,2.891185E-2,2.9768914E-2,-1.1865929E-2],"split_indices":[0,5,0,1,10,1,6,9,8,0,0,0,9,8,1,0,0,4,4,0,1,0,1,0,10,0,0,0,0,7,9,4,4,0,0,7,0,0,0,8,0,9,8,3,2,0,0,10,10,5,5,0,0,0,0,3,10,0,2,10,0,0,0,0,0,0,0,0,0,0,0,0,0,0,0,0,0,0,0,0,0,0,0,0,0,0,0,0,0,0,0,0,0,0,0,0,0,0,0,0,0,0,0,0,0,0,0,0,0,0,0,0,0,0,0,0,0,0,0,0,0,0,0,0,0,0,0],"split_type":[0,0,0,0,0,0,0,0,0,0,0,0,0,0,0,0,0,0,0,0,0,0,0,0,0,0,0,0,0,0,0,0,0,0,0,0,0,0,0,0,0,0,0,0,0,0,0,0,0,0,0,0,0,0,0,0,0,0,0,0,0,0,0,0,0,0,0,0,0,0,0,0,0,0,0,0,0,0,0,0,0,0,0,0,0,0,0,0,0,0,0,0,0,0,0,0,0,0,0,0,0,0,0,0,0,0,0,0,0,0,0,0,0,0,0,0,0,0,0,0,0,0,0,0,0,0,0],"sum_hessian":[3.560264E4,8.847728E3,2.6754914E4,6.6761025E3,2.1716252E3,2.0483932E4,6.2709814E3,4.412071E3,2.2640317E3,1.6205957E3,5.510296E2,1.3716611E4,6.767321E3,3.1113333E3,3.159648E3,3.321796E3,1.0902749E3,1.7091938E3,5.548379E2,1.4484117E3,1.7218399E2,1.7712842E2,3.7390118E2,1.3118885E4,5.9772675E2,5.0905864E3,1.6767345E3,2.31789E3,7.9344324E2,2.1235247E3,1.0361232E3,1.00654315E3,2.315253E3,4.3701596E2,6.532589E2,1.1261901E3,5.830038E2,3.635517E2,1.9128618E2,7.9301697E2,6.5539484E2,1.1330364E2,5.888035E1,6.8288895E1,1.08839516E2,2.5008357E2,1.238176E2,1.0715795E4,2.40309E3,4.524963E2,1.4523044E2,1.1049723E3,3.9856143E3,8.824704E2,7.9426404E2,1.0045371E3,1.3133529E3,3.398005E2,4.5364273E2,1.5776534E3,5.458713E2,7.837861E2,2.5233713E2,6.686114E2,3.3793176E2,1.5307993E3,7.844535E2,2.2934422E2,2.0767174E2,1.10849785E2,5.424091E2,7.679801E2,3.5821005E2,1.9597101E2,3.8703275E2,1.1678122E2,2.4677046E2,6.2527714E1,1.2875847E2,5.2551117E2,2.675058E2,1.6656079E2,4.8883405E2,6.626412E1,4.703952E1,4.102497E1,1.7855377E1,4.6129147E1,2.2159746E1,6.950631E1,3.9333206E1,1.4107045E2,1.0901312E2,7.210288E1,5.1714706E1,8.0069673E3,2.7088276E3,1.8090391E3,5.940509E2,3.2813147E2,1.2436484E2,1.0905789E2,3.6172554E1,4.299939E2,6.749784E2,2.19115E2,3.7664993E3,8.084272E2,7.40432E1,1.419466E2,6.5231744E2,6.772329E2,3.2730423E2,8.5710333E2,4.5624957E2,1.15622925E2,2.241776E2,3.010761E2,1.5256664E2,1.0677428E3,5.099107E2,7.605369E1,4.6981757E2,4.30458E2,3.533281E2,7.6163155E1,1.7617398E2],"tree_param":{"num_deleted":"0","num_feature":"11","num_nodes":"127","size_leaf_vector":"1"}},{"base_weights":[9.7545015E-4,-8.973181E-4,6.6142147E-3,3.3588442E-3,-5.174433E-3,1.3180589E-2,-1.3846912E-2,-6.1904625E-3,1.0948542E-2,-2.1381797E-2,-1.1423595E-3,-7.1115755E-3,1.9609835E-2,-3.0362157E-2,1.8728081E-2,4.915686E-3,-1.756979E-2,2.040508E-3,2.8466325E-2,-3.2152843E-2,2.8584196E-4,1.1583619E-2,-4.090636E-3,6.9185533E-3,-3.4840763E-2,2.3469023E-2,-3.0927144E-2,7.852363E-3,-7.814747E-2,4.400406E-2,-2.9759588E-2,2.4643013E-2,-1.1900146E-2,-3.0974738E-2,8.3553195E-3,3.3407297E-2,-4.886274E-3,3.5904847E-2,-3.9922665E-3,-5.508E-2,-9.456856E-3,1.9503038E-2,-3.8375955E-2,2.7393727E-2,-1.8808406E-2,-2.3988288E-2,1.9783932E-3,-2.2031203E-2,1.4298668E-2,-1.0560028E-2,-1.4300647E-1,5.755942E-2,2.0975245E-2,-4.917937E-2,3.9627654E-3,-4.9541477E-2,2.6557704E-2,-1.3037226E-1,-4.4050798E-2,1.0973789E-1,-1.8381128E-2,-1.4514357E-1,4.408615E-2,-4.025303E-3,1.1617728E-2,-6.069133E-3,6.392018E-3,1.6905325E-2,-1.27254585E-2,-1.763207E-2,8.432086E-3,-1.4164478E-3,2.1404687E-2,5.001588E-4,-7.3552574E-3,6.4802053E-3,2.556351E-2,-7.829237E-3,5.28874E-3,4.331023E-3,-2.315814E-2,-1.2954784E-2,7.32507E-3,-2.128418E-3,1.3428375E-2,-3.4282666E-3,-3.8521647E-2,1.2999442E-3,2.2039503E-2,2.1387583E-3,-2.1411253E-2,-1.0219919E-2,2.0500124E-3,1.7688029E-3,-3.020461E-3,-1.732576E-2,1.4701068E-2,6.470007E-3,-1.066407E-2,-7.342166E-3,2.7627373E-2,-5.886731E-2,-2.7695497E-2,-1.2432022E-3,5.059101E-2,-3.526454E-3,7.569647E-3,-1.841684E-2,-1.0650957E-2,2.0295765E-2,-1.9884823E-2,-3.0734174E-2,1.55520765E-2,-2.6299633E-4,2.3381487E-2,-2.8252583E-2,-6.1825305E-2,1.9311728E-3,-4.6624072E-2,1.8107785E-2,4.8203927E-2,-2.5463399E-2,2.3291305E-2,-3.3414043E-2,-7.356042E-2,7.589063E-3,4.914138E-2],"categories":[],"categories_nodes":[],"categories_segments":[],"categories_sizes":[],"default_left":[0,0,0,0,0,0,0,0,0,0,0,0,0,0,0,0,0,0,0,0,0,0,0,0,0,0,0,0,0,0,0,0,0,0,0,0,0,0,0,0,0,0,0,0,0,0,0,0,0,0,0,0,0,0,0,0,0,0,0,0,0,0,0,0,0,0,0,0,0,0,0,0,0,0,0,0,0,0,0,0,0,0,0,0,0,0,0,0,0,0,0,0,0,0,0,0,0,0,0,0,0,0,0,0,0,0,0,0,0,0,0,0,0,0,0,0,0,0,0,0,0,0,0,0,0,0,0],"id":7,"left_children":[1,3,5,7,9,11,13,15,17,19,21,23,25,27,29,31,33,35,37,39,41,43,45,47,49,51,53,55,57,59,61,63,65,67,69,71,73,75,77,79,81,83,85,87,89,91,93,95,97,99,101,103,105,107,109,111,113,115,117,119,121,123,125,-1,-1,-1,-1,-1,-1,-1,-1,-1,-1,-1,-1,-1,-1,-1,-1,-1,-1,-1,-1,-1,-1,-1,-1,-1,-1,-1,-1,-1,-1,-1,-1,-1,-1,-1,-1,-1,-1,-1,-1,-1,-1,-1,-1,-1,-1,-1,-1,-1,-1,-1,-1,-1,-1,-1,-1,-1,-1,-1,-1,-1,-1,-1,-1],"loss_changes":[3.7557352E-1,4.8604262E-1,1.1915249E0,9.699986E-1,8.70229E-1,8.7598324E-1,1.1597962E0,7.491354E-1,1.1635661E0,6.19158E-1,4.00196E-1,6.289286E-1,9.950659E-1,2.6123383E0,8.9050853E-1,9.955712E-1,1.0177009E0,1.0743967E0,6.0703063E-1,9.2157376E-1,6.5595883E-1,9.6455336E-1,1.0457886E0,2.2975309E-1,1.4248471E0,4.0152144E-1,2.3081163E-1,8.554547E-1,1.1261003E0,1.9594469E0,2.1298246E0,7.4069804E-1,4.486488E-1,1.9311031E0,1.3257484E0,1.2943363E0,5.211805E-1,1.4405105E0,2.2487316E-1,1.3559625E0,1.019774E0,3.9650992E-1,7.0973843E-1,1.4022747E0,9.3732136E-1,6.28953E-1,3.1326914E-1,5.5737674E-1,3.1100017E-1,6.372836E-1,2.502432E-1,2.2099762E0,6.155559E-1,3.7535608E-2,5.650926E-1,1.0561115E0,8.468037E-1,6.6725683E-1,2.1716332E0,5.7531404E-1,1.575741E0,3.0202556E-1,3.3939835E-1,0E0,0E0,0E0,0E0,0E0,0E0,0E0,0E0,0E0,0E0,0E0,0E0,0E0,0E0,0E0,0E0,0E0,0E0,0E0,0E0,0E0,0E0,0E0,0E0,0E0,0E0,0E0,0E0,0E0,0E0,0E0,0E0,0E0,0E0,0E0,0E0,0E0,0E0,0E0,0E0,0E0,0E0,0E0,0E0,0E0,0E0,0E0,0E0,0E0,0E0,0E0,0E0,0E0,0E0,0E0,0E0,0E0,0E0,0E0,0E0,0E0,0E0,0E0,0E0],"parents":[2147483647,0,0,1,1,2,2,3,3,4,4,5,5,6,6,7,7,8,8,9,9,10,10,11,11,12,12,13,13,14,14,15,15,16,16,17,17,18,18,19,19,20,20,21,21,22,22,23,23,24,24,25,25,26,26,27,27,28,28,29,29,30,30,31,31,32,32,33,33,34,34,35,35,36,36,37,37,38,38,39,39,40,40,41,41,42,42,43,43,44,44,45,45,46,46,47,47,48,48,49,49,50,50,51,51,52,52,53,53,54,54,55,55,56,56,57,57,58,58,59,59,60,60,61,61,62,62],"right_children":[2,4,6,8,10,12,14,16,18,20,22,24,26,28,30,32,34,36,38,40,42,44,46,48,50,52,54,56,58,60,62,64,66,68,70,72,74,76,78,80,82,84,86,88,90,92,94,96,98,100,102,104,106,108,110,112,114,116,118,120,122,124,126,-1,-1,-1,-1,-1,-1,-1,-1,-1,-1,-1,-1,-1,-1,-1,-1,-1,-1,-1,-1,-1,-1,-1,-1,-1,-1,-1,-1,-1,-1,-1,-1,-1,-1,-1,-1,-1,-1,-1,-1,-1,-1,-1,-1,-1,-1,-1,-1,-1,-1,-1,-1,-1,-1,-1,-1,-1,-1,-1,-1,-1,-1,-1,-1],"split_conditions":[1E0,4E1,1E0,2.9E1,4.4E1,3E1,4.7E1,1E0,1E0,1E0,4.7E1,1E0,5.8E1,3.5E1,1E0,2.4E1,1E0,3.1E1,3.8E1,1E0,1E0,1E0,5E1,2.2E1,2.8E1,3.2E1,1E0,2.4E1,4E1,5.3E1,5.2E1,2.1E1,2.8E1,2.1E1,2.2E1,1E0,1E0,3.6E1,3.9E1,4.1E1,4.2E1,4.2E1,4.3E1,4.6E1,4.6E1,1E0,1E0,1E0,2.9E1,2.7E1,2.9E1,1E0,3.5E1,5.9E1,5.9E1,1E0,1E0,1E0,1E0,1E0,5.7E1,5.1E1,5.9E1,-4.025303E-3,1.1617728E-2,-6.069133E-3,6.392018E-3,1.6905325E-2,-1.27254585E-2,-1.763207E-2,8.432086E-3,-1.4164478E-3,2.1404687E-2,5.001588E-4,-7.3552574E-3,6.4802053E-3,2.556351E-2,-7.829237E-3,5.28874E-3,4.331023E-3,-2.315814E-2,-1.2954784E-2,7.32507E-3,-2.128418E-3,1.3428375E-2,-3.4282666E-3,-3.8521647E-2,1.2999442E-3,2.2039503E-2,2.1387583E-3,-2.1411253E-2,-1.0219919E-2,2.0500124E-3,1.7688029E-3,-3.020461E-3,-1.732576E-2,1.4701068E-2,6.470007E-3,-1.066407E-2,-7.342166E-3,2.7627373E-2,-5.886731E-2,-2.7695497E-2,-1.2432022E-3,5.059101E-2,-3.526454E-3,7.569647E-3,-1.841684E-2,-1.0650957E-2,2.0295765E-2,-1.9884823E-2,-3.0734174E-2,1.55520765E-2,-2.6299633E-4,2.3381487E-2,-2.8252583E-2,-6.1825305E-2,1.9311728E-3,-4.6624072E-2,1.8107785E-2,4.8203927E-2,-2.5463399E-2,2.3291305E-2,-3.3414043E-2,-7.356042E-2,7.589063E-3,4.914138E-2],"split_indices":[7,0,5,0,0,0,0,6,9,8,0,4,0,0,2,0,10,0,0,6,3,10,0,0,0,0,2,0,0,0,0,0,0,0,0,6,5,0,0,0,0,0,0,0,0,5,4,1,0,0,0,2,0,0,0,3,2,2,1,1,0,0,0,0,0,0,0,0,0,0,0,0,0,0,0,0,0,0,0,0,0,0,0,0,0,0,0,0,0,0,0,0,0,0,0,0,0,0,0,0,0,0,0,0,0,0,0,0,0,0,0,0,0,0,0,0,0,0,0,0,0,0,0,0,0,0,0],"split_type":[0,0,0,0,0,0,0,0,0,0,0,0,0,0,0,0,0,0,0,0,0,0,0,0,0,0,0,0,0,0,0,0,0,0,0,0,0,0,0,0,0,0,0,0,0,0,0,0,0,0,0,0,0,0,0,0,0,0,0,0,0,0,0,0,0,0,0,0,0,0,0,0,0,0,0,0,0,0,0,0,0,0,0,0,0,0,0,0,0,0,0,0,0,0,0,0,0,0,0,0,0,0,0,0,0,0,0,0,0,0,0,0,0,0,0,0,0,0,0,0,0,0,0,0,0,0,0],"sum_hessian":[3.5563773E4,2.6697678E4,8.866095E3,1.3381723E4,1.3315955E4,6.7123325E3,2.1537625E3,5.925935E3,7.4557876E3,2.6519292E3,1.0664025E4,1.6149805E3,5.097352E3,1.4292253E3,7.245372E2,2.9992524E3,2.9266826E3,4.9432124E3,2.512575E3,1.7710508E3,8.808784E2,2.0053179E3,8.658708E3,1.0728842E3,5.420964E2,4.7362134E3,3.6113885E2,7.946052E2,6.346201E2,4.7632678E2,2.4821039E2,1.3799326E3,1.6193197E3,1.9290466E3,9.97636E2,8.9346796E2,4.0497446E3,2.0440376E3,4.6853738E2,8.803287E2,8.9072217E2,5.8873694E2,2.9214148E2,1.3191743E3,6.861435E2,2.0230554E3,6.635653E3,2.1754431E2,8.553398E2,4.43613E2,9.848337E1,3.2134116E2,4.414872E3,2.3683301E2,1.2430584E2,1.9491045E2,5.9969476E2,2.4955743E2,3.8506268E2,2.3156892E2,2.4475784E2,9.64858E1,1.5172458E2,3.7270087E2,1.0072317E3,1.294877E3,3.2444284E2,2.2304558E2,1.7060011E3,2.2635587E2,7.712801E2,4.4607175E2,4.473962E2,3.036867E3,1.0128777E3,1.5855111E3,4.5852655E2,2.315744E2,2.3696298E2,2.1253925E2,6.677894E2,4.4619843E2,4.4452374E2,2.8711453E2,3.0162238E2,2.2570767E2,6.643379E1,8.798614E2,4.3931293E2,4.6001007E2,2.2613345E2,1.5244752E3,4.985801E2,5.0076494E3,1.6280033E3,1.4487689E2,7.266742E1,7.469882E2,1.08351585E2,3.9133157E2,5.2281425E1,4.6642185E1,5.1841183E1,2.0720273E2,1.14138435E2,5.079141E2,3.906958E3,1.2327991E2,1.1355309E2,6.521448E1,5.9091366E1,1.2806801E2,6.684243E1,3.9159036E2,2.0810442E2,1.7035617E2,7.9201256E1,2.655938E2,1.1946888E2,1.1869814E2,1.1287079E2,1.4467833E2,1.00079506E2,7.37222E1,2.2763601E1,1.3218936E2,1.9535227E1],"tree_param":{"num_deleted":"0","num_feature":"11","num_nodes":"127","size_leaf_vector":"1"}},{"base_weights":[-4.5047803E-3,-1.1903147E-2,-1.362979E-4,-1.5939971E-2,2.2894239E-4,7.4045192E-3,-1.1552368E-2,-1.23639135E-2,-2.698267E-2,3.487597E-2,-5.442825E-3,1.2447945E-2,-2.8083504E-3,-1.611006E-2,-2.3435038E-3,-8.407929E-3,-2.8026223E-2,-2.0641003E-2,-3.921478E-2,6.956666E-2,-3.7865344E-2,-1.4891406E-2,2.1552008E-2,8.646484E-3,2.3783792E-2,9.79184E-3,-1.5654372E-2,-1.0294812E-2,-3.3707045E-2,-1.8535048E-2,1.4134969E-2,-1.5914217E-3,-2.172803E-2,-4.3220337E-2,1.9613905E-3,-3.28647E-2,1.3025928E-2,-1.731738E-2,-7.083484E-2,4.8033074E-2,1.3808364E-1,9.694117E-4,-5.285529E-2,-5.4506395E-2,-7.793206E-3,6.189491E-2,-1.4085368E-3,-2.387805E-2,1.3606606E-2,8.809167E-2,8.022493E-3,9.003142E-2,4.067307E-3,-3.8797718E-2,-4.0128212E-3,2.7284732E-2,-1.4706849E-2,7.162251E-3,-7.3670045E-2,-6.4891693E-3,-6.807585E-2,4.089631E-2,-4.167875E-3,-5.8267717E-3,1.3399217E-3,-2.0017552E-4,-8.651227E-3,-2.6280986E-2,-6.5597324E-3,-6.5848506E-3,1.5644945E-2,-2.9376969E-3,-2.4222352E-2,-1.27121415E-2,3.798633E-2,-3.513453E-2,-1.7204656E-3,-1.3650391E-2,-3.624642E-2,9.289269E-3,2.2799514E-2,2.711485E-2,5.2105937E-2,6.87271E-3,-1.7820071E-2,-2.3376407E-2,-3.9874503E-5,-6.7640236E-3,6.8911323E-3,1.6830625E-2,2.4427453E-2,-5.2907513E-3,9.716343E-3,-2.1841427E-2,2.045694E-2,9.315195E-3,-3.5592396E-4,1.53228035E-2,3.7204698E-2,-4.748325E-3,2.3200259E-2,1.2823019E-2,6.456008E-2,-2.0610874E-3,1.0835053E-2,-8.5252095E-3,-2.1349534E-2,2.9703616E-3,-1.3698244E-2,-1.6402092E-4,2.4621312E-2,-7.75471E-3,-8.579684E-4,1.5871E-2,-1.1981072E-2,-5.0012324E-2,-1.8925387E-2,-6.2706177E-3,1.1994209E-2,-1.7427837E-2,-2.861531E-2,6.6713756E-3,1.8073756E-2,-5.2362964E-3,9.868117E-3],"categories":[],"categories_nodes":[],"categories_segments":[],"categories_sizes":[],"default_left":[0,0,0,0,0,0,0,0,0,0,0,0,0,0,0,0,0,0,0,0,0,0,0,0,0,0,0,0,0,0,0,0,0,0,0,0,0,0,0,0,0,0,0,0,0,0,0,0,0,0,0,0,0,0,0,0,0,0,0,0,0,0,0,0,0,0,0,0,0,0,0,0,0,0,0,0,0,0,0,0,0,0,0,0,0,0,0,0,0,0,0,0,0,0,0,0,0,0,0,0,0,0,0,0,0,0,0,0,0,0,0,0,0,0,0,0,0,0,0,0,0,0,0,0,0],"id":8,"left_children":[1,3,5,7,9,11,13,15,17,19,21,23,25,27,29,31,33,35,37,39,41,43,45,47,49,51,53,55,57,59,61,63,65,67,69,71,73,75,77,79,81,83,-1,85,87,89,91,93,95,97,99,101,103,105,107,109,111,113,115,117,119,121,123,-1,-1,-1,-1,-1,-1,-1,-1,-1,-1,-1,-1,-1,-1,-1,-1,-1,-1,-1,-1,-1,-1,-1,-1,-1,-1,-1,-1,-1,-1,-1,-1,-1,-1,-1,-1,-1,-1,-1,-1,-1,-1,-1,-1,-1,-1,-1,-1,-1,-1,-1,-1,-1,-1,-1,-1,-1,-1,-1,-1,-1,-1],"loss_changes":[1.1466174E0,6.4506054E-1,1.9204472E0,3.8992953E-1,6.4658225E-1,6.920104E-1,3.724134E-1,4.6242297E-1,1.8665755E-1,1.1706356E0,7.21512E-1,3.873459E-1,7.1913755E-1,6.0707915E-1,7.84443E-1,5.413654E-1,6.859473E-1,6.5627605E-1,5.693228E-1,4.562807E-1,8.064927E-1,5.8868355E-1,6.79513E-1,1.0870881E0,2.28791E0,1.0299417E0,5.92552E-1,7.403693E-1,2.40787E0,8.8448423E-1,7.139197E-1,4.2625886E-1,3.0219448E-1,9.450295E-1,6.097724E-1,1.2910128E0,2.6812983E0,5.636246E-1,4.210497E-1,1.1233032E-1,1.1081207E-1,1.5791148E-1,0E0,4.0507728E-1,8.074305E-1,2.5532484E-2,2.5746632E-1,4.021958E0,1.5085199E0,5.84568E-1,3.000928E0,8.7463605E-1,7.3454314E-1,2.4530697E-1,8.492741E-1,7.155812E-1,5.27228E-1,1.5739884E0,7.235131E-1,8.0049753E-1,7.350135E-2,2.1236724E-1,4.2713758E-1,0E0,0E0,0E0,0E0,0E0,0E0,0E0,0E0,0E0,0E0,0E0,0E0,0E0,0E0,0E0,0E0,0E0,0E0,0E0,0E0,0E0,0E0,0E0,0E0,0E0,0E0,0E0,0E0,0E0,0E0,0E0,0E0,0E0,0E0,0E0,0E0,0E0,0E0,0E0,0E0,0E0,0E0,0E0,0E0,0E0,0E0,0E0,0E0,0E0,0E0,0E0,0E0,0E0,0E0,0E0,0E0,0E0,0E0,0E0,0E0,0E0,0E0],"parents":[2147483647,0,0,1,1,2,2,3,3,4,4,5,5,6,6,7,7,8,8,9,9,10,10,11,11,12,12,13,13,14,14,15,15,16,16,17,17,18,18,19,19,20,20,21,21,22,22,23,23,24,24,25,25,26,26,27,27,28,28,29,29,30,30,31,31,32,32,33,33,34,34,35,35,36,36,37,37,38,38,39,39,40,40,41,41,43,43,44,44,45,45,46,46,47,47,48,48,49,49,50,50,51,51,52,52,53,53,54,54,55,55,56,56,57,57,58,58,59,59,60,60,61,61,62,62],"right_children":[2,4,6,8,10,12,14,16,18,20,22,24,26,28,30,32,34,36,38,40,42,44,46,48,50,52,54,56,58,60,62,64,66,68,70,72,74,76,78,80,82,84,-1,86,88,90,92,94,96,98,100,102,104,106,108,110,112,114,116,118,120,122,124,-1,-1,-1,-1,-1,-1,-1,-1,-1,-1,-1,-1,-1,-1,-1,-1,-1,-1,-1,-1,-1,-1,-1,-1,-1,-1,-1,-1,-1,-1,-1,-1,-1,-1,-1,-1,-1,-1,-1,-1,-1,-1,-1,-1,-1,-1,-1,-1,-1,-1,-1,-1,-1,-1,-1,-1,-1,-1,-1,-1,-1,-1],"split_conditions":[3.5E1,1E0,5E1,1E0,2.2E1,1E0,1E0,3.2E1,1E0,1E0,1E0,1E0,1E0,1E0,5.5E1,1E0,1E0,3.1E1,2.9E1,1E0,1E0,2.4E1,2.7E1,3.7E1,3.8E1,3.6E1,4E1,5.1E1,1E0,5.4E1,5.7E1,2.3E1,2.3E1,3.3E1,1E0,1E0,1E0,2.1E1,1E0,1E0,2.1E1,1E0,-5.285529E-2,1E0,1E0,2.6E1,1E0,1E0,4.3E1,1E0,4.7E1,1E0,1E0,1E0,1E0,1E0,1E0,5.5E1,5.1E1,1E0,1E0,5.6E1,1E0,-5.8267717E-3,1.3399217E-3,-2.0017552E-4,-8.651227E-3,-2.6280986E-2,-6.5597324E-3,-6.5848506E-3,1.5644945E-2,-2.9376969E-3,-2.4222352E-2,-1.27121415E-2,3.798633E-2,-3.513453E-2,-1.7204656E-3,-1.3650391E-2,-3.624642E-2,9.289269E-3,2.2799514E-2,2.711485E-2,5.2105937E-2,6.87271E-3,-1.7820071E-2,-2.3376407E-2,-3.9874503E-5,-6.7640236E-3,6.8911323E-3,1.6830625E-2,2.4427453E-2,-5.2907513E-3,9.716343E-3,-2.1841427E-2,2.045694E-2,9.315195E-3,-3.5592396E-4,1.53228035E-2,3.7204698E-2,-4.748325E-3,2.3200259E-2,1.2823019E-2,6.456008E-2,-2.0610874E-3,1.0835053E-2,-8.5252095E-3,-2.1349534E-2,2.9703616E-3,-1.3698244E-2,-1.6402092E-4,2.4621312E-2,-7.75471E-3,-8.579684E-4,1.5871E-2,-1.1981072E-2,-5.0012324E-2,-1.8925387E-2,-6.2706177E-3,1.1994209E-2,-1.7427837E-2,-2.861531E-2,6.6713756E-3,1.8073756E-2,-5.2362964E-3,9.868117E-3],"split_indices":[0,5,0,7,0,2,3,0,4,3,8,8,6,8,0,10,10,0,0,7,8,0,0,0,0,0,0,0,1,0,0,0,0,0,2,3,3,0,2,8,0,7,0,7,1,0,2,10,0,1,0,8,10,7,8,7,1,0,0,4,9,0,7,0,0,0,0,0,0,0,0,0,0,0,0,0,0,0,0,0,0,0,0,0,0,0,0,0,0,0,0,0,0,0,0,0,0,0,0,0,0,0,0,0,0,0,0,0,0,0,0,0,0,0,0,0,0,0,0,0,0,0,0,0,0],"split_type":[0,0,0,0,0,0,0,0,0,0,0,0,0,0,0,0,0,0,0,0,0,0,0,0,0,0,0,0,0,0,0,0,0,0,0,0,0,0,0,0,0,0,0,0,0,0,0,0,0,0,0,0,0,0,0,0,0,0,0,0,0,0,0,0,0,0,0,0,0,0,0,0,0,0,0,0,0,0,0,0,0,0,0,0,0,0,0,0,0,0,0,0,0,0,0,0,0,0,0,0,0,0,0,0,0,0,0,0,0,0,0,0,0,0,0,0,0,0,0,0,0,0,0,0,0],"sum_hessian":[3.547647E4,1.3170118E4,2.2306352E4,9.881755E3,3.288363E3,1.343337E4,8.872981E3,7.4660693E3,2.4156858E3,4.618597E2,2.8265034E3,8.992421E3,4.4409497E3,5.9349033E3,2.9380781E3,5.9617803E3,1.5042891E3,1.5926652E3,8.230206E2,3.1275092E2,1.491088E2,2.094016E3,7.324874E2,6.7354575E3,2.2569631E3,2.2420464E3,2.198903E3,4.461953E3,1.4729498E3,1.481878E3,1.4562E3,3.9443794E3,2.0174009E3,9.981205E2,5.0616858E2,1.168451E3,4.2421414E2,4.871849E2,3.358357E2,2.3925778E2,7.349313E1,1.1719721E2,3.1911573E1,3.1717673E2,1.7768392E3,2.650626E2,4.6742484E2,8.907583E2,5.844699E3,4.4337085E2,1.8135923E3,1.4832191E2,2.0937246E3,7.3513184E2,1.4637712E3,4.682708E2,3.9936826E3,7.286233E2,7.4432654E2,1.192944E3,2.889341E2,5.90935E2,8.652649E2,9.996662E2,2.9447131E3,5.0941373E2,1.5079872E3,3.232276E2,6.748929E2,3.4321564E2,1.6295296E2,7.892866E2,3.791644E2,2.8557016E2,1.38644E2,4.971516E1,4.3746976E2,2.2414684E2,1.1168887E2,1.4988286E2,8.937492E1,3.2922302E1,4.057083E1,8.64133E1,3.0783918E1,2.214012E2,9.577553E1,1.2010908E3,5.757485E2,2.0741368E2,5.764891E1,3.1611874E2,1.5130609E2,5.817917E2,3.0896658E2,2.681525E3,3.163174E3,2.1956023E2,2.2381062E2,1.3498715E3,4.637208E2,1.0862539E2,3.9696526E1,1.5615853E3,5.3213916E2,5.580431E2,1.7708873E2,1.0977802E3,3.6599115E2,3.1118082E2,1.5709E2,2.0574485E3,1.9362339E3,3.695783E2,3.5904495E2,7.4528595E1,6.697979E2,9.1095605E2,2.819879E2,2.1387572E2,7.5058395E1,3.0193457E2,2.8900046E2,6.373179E2,2.2794707E2],"tree_param":{"num_deleted":"0","num_feature":"11","num_nodes":"125","size_leaf_vector":"1"}},{"base_weights":[2.7283435E-3,9.490011E-3,4.885278E-4,1.6013695E-2,-1.06611885E-2,-1.8794409E-3,8.208764E-3,2.0442527E-2,2.735196E-3,-1.9313013E-2,1.4639344E-2,-1.1304466E-3,-1.8714165E-2,-2.2199263E-3,1.845575E-2,3.5172246E-2,1.3870885E-2,-6.841718E-2,1.1348216E-2,-2.4394726E-2,2.3130376E-2,-2.0994622E-2,3.1397708E-2,1.5201553E-3,-6.4932923E-3,4.1494225E-4,-7.953082E-2,2.1353642E-2,-1.1928923E-2,7.010205E-3,4.1792464E-2,2.553953E-2,5.459936E-2,2.5771465E-3,3.5907824E-2,-1.1992438E-1,1.4554893E-2,2.5327258E-2,-1.732725E-2,-6.6038356E-3,-4.5964673E-2,6.0546935E-2,-4.9672622E-2,1.17882695E-2,-4.1612726E-2,3.90255E-2,-9.496701E-3,-6.468236E-5,1.7314652E-2,-9.966462E-3,4.0605715E-3,-1.3819213E-2,2.738841E-2,-3.7752643E-2,-1.1880173E-1,4.418336E-2,-4.492252E-2,-3.0950734E-2,2.3554588E-2,-2.2358362E-2,1.9373583E-2,5.4361872E-2,2.4205327E-3,-5.328114E-3,1.3884213E-2,3.275351E-2,7.4865236E-3,-3.412964E-3,3.8131897E-3,5.5108955E-3,4.127901E-2,-2.611956E-2,-5.4960556E-2,-1.0961028E-2,3.5639517E-2,1.21501535E-2,-1.2624011E-3,2.0724405E-3,-2.8269906E-2,4.9965153E-3,-1.5823793E-2,-2.9733067E-2,-8.355528E-3,3.1588864E-2,-1.1992443E-3,-2.8371286E-2,1.5292826E-2,-7.394601E-4,1.2041473E-2,-2.3007803E-2,5.9941257E-3,8.132348E-3,2.992629E-2,5.2585993E-3,-2.3296386E-2,9.6918404E-4,-2.9430361E-3,-2.3508375E-3,2.8675335E-2,3.2957606E-3,-4.836972E-3,-2.1195305E-3,2.2757376E-2,3.2624325E-3,-1.9839404E-2,2.5260648E-2,-2.3061005E-2,-7.043899E-3,-1.573159E-2,-2.5896667E-2,-5.471669E-2,6.7499713E-3,2.5009327E-2,-7.849263E-3,-2.530487E-2,-4.5260163E-3,-2.4096847E-2,2.7704714E-3,1.1254938E-2,-1.5507472E-3,-2.2283757E-2,1.5750172E-2,3.140678E-3,2.129524E-2,5.316902E-3,2.519065E-2,-1.00712525E-2],"categories":[],"categories_nodes":[],"categories_segments":[],"categories_sizes":[],"default_left":[0,0,0,0,0,0,0,0,0,0,0,0,0,0,0,0,0,0,0,0,0,0,0,0,0,0,0,0,0,0,0,0,0,0,0,0,0,0,0,0,0,0,0,0,0,0,0,0,0,0,0,0,0,0,0,0,0,0,0,0,0,0,0,0,0,0,0,0,0,0,0,0,0,0,0,0,0,0,0,0,0,0,0,0,0,0,0,0,0,0,0,0,0,0,0,0,0,0,0,0,0,0,0,0,0,0,0,0,0,0,0,0,0,0,0,0,0,0,0,0,0,0,0,0,0,0,0],"id":9,"left_children":[1,3,5,7,9,11,13,15,17,19,21,23,25,27,29,31,33,35,37,39,41,43,45,47,49,51,53,55,57,59,61,63,65,67,69,71,73,75,77,79,81,83,85,87,89,91,93,95,97,99,101,103,105,107,109,111,113,115,117,119,121,123,125,-1,-1,-1,-1,-1,-1,-1,-1,-1,-1,-1,-1,-1,-1,-1,-1,-1,-1,-1,-1,-1,-1,-1,-1,-1,-1,-1,-1,-1,-1,-1,-1,-1,-1,-1,-1,-1,-1,-1,-1,-1,-1,-1,-1,-1,-1,-1,-1,-1,-1,-1,-1,-1,-1,-1,-1,-1,-1,-1,-1,-1,-1,-1,-1],"loss_changes":[5.393927E-1,1.1651871E0,4.891249E-1,3.9367604E-1,4.7483745E-1,2.5815618E-1,6.711613E-1,4.854865E-1,1.0277109E0,3.4909785E-1,3.3089903E-1,2.7868113E-1,1.0146135E0,7.128372E-1,8.458338E-1,2.883308E-1,8.643331E-1,7.756369E-1,5.999673E-1,5.5369E-1,4.7508454E-1,1.204577E-1,1.1782119E-1,3.2843328E-1,2.377396E-1,2.5548148E-1,3.3788812E-1,1.3767302E0,1.4895716E0,7.7259195E-1,5.15638E-1,9.3204176E-1,8.261843E-1,3.2500556E-1,2.0962262E0,2.165817E-1,3.7848556E-1,4.50948E-1,9.153304E-1,8.5117406E-1,6.2520385E-1,3.3234712E-1,2.731573E-1,2.8104188E-2,2.3743598E-1,2.2710645E-1,1.1187082E-1,3.8299727E-1,2.3560896E0,6.296071E-1,1.283685E0,5.6340134E-1,1.367917E0,2.0270377E-2,2.0545089E-1,5.726955E-1,1.7032549E-1,1.1238675E0,1.5367469E-1,5.6231034E-1,4.410771E-1,4.7984052E-1,7.461246E-1,0E0,0E0,0E0,0E0,0E0,0E0,0E0,0E0,0E0,0E0,0E0,0E0,0E0,0E0,0E0,0E0,0E0,0E0,0E0,0E0,0E0,0E0,0E0,0E0,0E0,0E0,0E0,0E0,0E0,0E0,0E0,0E0,0E0,0E0,0E0,0E0,0E0,0E0,0E0,0E0,0E0,0E0,0E0,0E0,0E0,0E0,0E0,0E0,0E0,0E0,0E0,0E0,0E0,0E0,0E0,0E0,0E0,0E0,0E0,0E0,0E0,0E0,0E0,0E0],"parents":[2147483647,0,0,1,1,2,2,3,3,4,4,5,5,6,6,7,7,8,8,9,9,10,10,11,11,12,12,13,13,14,14,15,15,16,16,17,17,18,18,19,19,20,20,21,21,22,22,23,23,24,24,25,25,26,26,27,27,28,28,29,29,30,30,31,31,32,32,33,33,34,34,35,35,36,36,37,37,38,38,39,39,40,40,41,41,42,42,43,43,44,44,45,45,46,46,47,47,48,48,49,49,50,50,51,51,52,52,53,53,54,54,55,55,56,56,57,57,58,58,59,59,60,60,61,61,62,62],"right_children":[2,4,6,8,10,12,14,16,18,20,22,24,26,28,30,32,34,36,38,40,42,44,46,48,50,52,54,56,58,60,62,64,66,68,70,72,74,76,78,80,82,84,86,88,90,92,94,96,98,100,102,104,106,108,110,112,114,116,118,120,122,124,126,-1,-1,-1,-1,-1,-1,-1,-1,-1,-1,-1,-1,-1,-1,-1,-1,-1,-1,-1,-1,-1,-1,-1,-1,-1,-1,-1,-1,-1,-1,-1,-1,-1,-1,-1,-1,-1,-1,-1,-1,-1,-1,-1,-1,-1,-1,-1,-1,-1,-1,-1,-1,-1,-1,-1,-1,-1,-1,-1,-1,-1,-1,-1,-1],"split_conditions":[3E1,1E0,5.3E1,1E0,1E0,5.2E1,1E0,2.3E1,2.1E1,2.9E1,2.3E1,1E0,1E0,5.5E1,1E0,1E0,1E0,1E0,1E0,2.5E1,1E0,2.1E1,2.9E1,5E1,1E0,1E0,1E0,1E0,1E0,5.5E1,1E0,2.1E1,2.1E1,2.6E1,2.9E1,1E0,1E0,1E0,2.8E1,1E0,2.6E1,1E0,1E0,1E0,1E0,2.8E1,1E0,1E0,1E0,3.5E1,4.9E1,1E0,1E0,1E0,1E0,1E0,1E0,1E0,1E0,1E0,5.6E1,1E0,5.5E1,-5.328114E-3,1.3884213E-2,3.275351E-2,7.4865236E-3,-3.412964E-3,3.8131897E-3,5.5108955E-3,4.127901E-2,-2.611956E-2,-5.4960556E-2,-1.0961028E-2,3.5639517E-2,1.21501535E-2,-1.2624011E-3,2.0724405E-3,-2.8269906E-2,4.9965153E-3,-1.5823793E-2,-2.9733067E-2,-8.355528E-3,3.1588864E-2,-1.1992443E-3,-2.8371286E-2,1.5292826E-2,-7.394601E-4,1.2041473E-2,-2.3007803E-2,5.9941257E-3,8.132348E-3,2.992629E-2,5.2585993E-3,-2.3296386E-2,9.6918404E-4,-2.9430361E-3,-2.3508375E-3,2.8675335E-2,3.2957606E-3,-4.836972E-3,-2.1195305E-3,2.2757376E-2,3.2624325E-3,-1.9839404E-2,2.5260648E-2,-2.3061005E-2,-7.043899E-3,-1.573159E-2,-2.5896667E-2,-5.471669E-2,6.7499713E-3,2.5009327E-2,-7.849263E-3,-2.530487E-2,-4.5260163E-3,-2.4096847E-2,2.7704714E-3,1.1254938E-2,-1.5507472E-3,-2.2283757E-2,1.5750172E-2,3.140678E-3,2.129524E-2,5.316902E-3,2.519065E-2,-1.00712525E-2],"split_indices":[0,5,0,9,10,0,6,0,0,0,0,1,10,0,1,2,4,4,4,0,1,0,0,0,9,2,6,10,2,0,9,0,0,0,0,1,2,2,0,8,0,9,8,3,2,0,2,10,10,0,0,9,8,4,2,1,1,7,4,7,0,10,0,0,0,0,0,0,0,0,0,0,0,0,0,0,0,0,0,0,0,0,0,0,0,0,0,0,0,0,0,0,0,0,0,0,0,0,0,0,0,0,0,0,0,0,0,0,0,0,0,0,0,0,0,0,0,0,0,0,0,0,0,0,0,0,0],"split_type":[0,0,0,0,0,0,0,0,0,0,0,0,0,0,0,0,0,0,0,0,0,0,0,0,0,0,0,0,0,0,0,0,0,0,0,0,0,0,0,0,0,0,0,0,0,0,0,0,0,0,0,0,0,0,0,0,0,0,0,0,0,0,0,0,0,0,0,0,0,0,0,0,0,0,0,0,0,0,0,0,0,0,0,0,0,0,0,0,0,0,0,0,0,0,0,0,0,0,0,0,0,0,0,0,0,0,0,0,0,0,0,0,0,0,0,0,0,0,0,0,0,0,0,0,0,0,0],"sum_hessian":[3.56148E4,8.861132E3,2.6753668E4,6.694184E3,2.166948E3,2.0474453E4,6.279215E3,5.019478E3,1.6747062E3,1.6149373E3,5.520108E2,1.9603346E4,8.71106E2,3.1124038E3,3.1668113E3,1.5472068E3,3.472271E3,1.8008403E2,1.4946221E3,1.4426367E3,1.7230049E2,1.7648695E2,3.7552386E2,1.3119642E4,6.4837046E3,6.6342676E2,2.076793E2,9.075826E2,2.2048213E3,2.1256042E3,1.041207E3,1.035888E3,5.113188E2,2.2964683E3,1.1758029E3,1.1083487E2,6.924916E1,1.0048723E3,4.897498E2,7.912883E2,6.513484E2,1.13920334E2,5.8380154E1,6.830689E1,1.0818006E2,3.1652927E2,5.8994617E1,1.1924154E4,1.1954873E3,4.8783457E3,1.6053585E3,4.3458157E2,2.2884515E2,1.0157769E2,1.06101616E2,6.752998E2,2.3228279E2,1.4354438E3,7.693773E2,6.294855E2,1.4961188E3,7.889542E2,2.5225275E2,3.3554266E2,7.0034534E2,1.7902585E2,3.3229294E2,9.660734E2,1.3303948E3,1.0038505E3,1.719524E2,7.4515724E1,3.6319145E1,4.690813E1,2.2341032E1,6.635918E2,3.4128055E2,3.7308832E2,1.166615E2,5.265228E2,2.6476553E2,1.6442708E2,4.8692133E2,6.6903854E1,4.7016476E1,4.041281E1,1.7967342E1,4.606198E1,2.2244911E1,6.876837E1,3.9411694E1,2.658116E2,5.0717632E1,4.2776203E1,1.6218414E1,8.91151E3,3.0126453E3,9.0543866E2,2.9004868E2,1.107748E3,3.770598E3,1.3907502E3,2.1460823E2,2.9575995E2,1.3882162E2,1.4825089E2,8.059427E1,5.283111E1,4.8746582E1,7.1789856E1,3.431176E1,4.357324E2,2.3956738E2,1.5852467E2,7.37581E1,1.0873629E3,3.4808096E2,3.8064185E2,3.8873547E2,4.737445E2,1.5574098E2,3.1592456E2,1.1801942E3,5.420847E2,2.4686952E2,7.683317E1,1.7541957E2],"tree_param":{"num_deleted":"0","num_feature":"11","num_nodes":"127","size_leaf_vector":"1"}},{"base_weights":[7.58284E-4,1.2453751E-3,-1.8105596E-2,4.3040614E-5,9.38942E-3,-3.906918E-2,4.628111E-2,9.281383E-4,-2.8847974E-2,2.6182763E-3,2.3099232E-2,-2.5503512E-2,-6.68465E-2,-8.179733E-3,1.9829085E-1,2.1176625E-4,2.3944601E-2,-6.471726E-3,-7.437541E-2,1.0744905E-2,-2.2383217E-2,1.3832809E-2,5.9480313E-2,-2.2494367E-3,-6.692745E-2,-2.3074731E-2,-5.4788228E-2,3.3161458E-2,-1.0078739E-1,1.1989161E-1,1.0065851E-1,3.4268328E-3,-6.1976835E-3,-2.3922343E-3,1.0414236E-1,5.806024E-3,-4.2889763E-2,-1.0561672E-1,1.13266595E-2,2.0029185E-2,-1.6315486E-2,-5.7388667E-2,4.300176E-3,4.126346E-2,-1.3424645E-2,2.0012552E-2,1.7182215E-1,-5.3159453E-2,4.5335453E-2,-1.08341634E-1,7.883263E-2,-7.3850214E-2,7.717187E-2,5.462562E-2,-1.6280688E-2,4.763641E-3,-7.283666E-2,2.4609784E-2,5.2922543E-2,2.1591848E-3,-2.4531614E-3,2.032232E-2,-2.5817961E-3,6.8785036E-3,-1.7289782E-2,2.1865759E-2,5.8684953E-2,9.404343E-3,-5.468467E-3,-4.319492E-2,1.7771048E-2,-4.5032047E-2,3.9455644E-3,-1.801416E-2,7.3997855E-2,9.061064E-3,-6.502706E-3,-1.1678896E-2,4.558051E-3,-2.8158655E-2,2.2294875E-2,7.6453467E-3,-1.1625184E-2,4.203693E-3,3.622771E-2,-8.60821E-3,1.0436438E-2,-3.5660854E-3,1.5209492E-2,1.6876552E-2,8.5993364E-2,-2.776181E-3,-5.364985E-2,2.5455032E-2,-1.5565594E-2,-2.9423914E-4,-6.1536416E-2,2.6017847E-3,3.9520025E-2,-2.8940953E-2,-9.401136E-3,3.5727717E-2,-3.5298818E-3,1.8636823E-2,1.2838267E-2,8.67561E-3,-1.4194896E-2,2.2380883E-2,-1.9183E-2],"categories":[],"categories_nodes":[],"categories_segments":[],"categories_sizes":[],"default_left":[0,0,0,0,0,0,0,0,0,0,0,0,0,0,0,0,0,0,0,0,0,0,0,0,0,0,0,0,0,0,0,0,0,0,0,0,0,0,0,0,0,0,0,0,0,0,0,0,0,0,0,0,0,0,0,0,0,0,0,0,0,0,0,0,0,0,0,0,0,0,0,0,0,0,0,0,0,0,0,0,0,0,0,0,0,0,0,0,0,0,0,0,0,0,0,0,0,0,0,0,0,0,0,0,0,0,0,0,0],"id":10,"left_children":[1,3,5,7,9,11,13,15,17,19,21,23,25,27,29,31,33,35,37,39,41,43,45,47,49,51,-1,53,55,57,-1,59,61,63,65,67,69,71,73,75,77,79,81,83,85,87,89,91,93,95,97,99,101,103,105,107,-1,-1,-1,-1,-1,-1,-1,-1,-1,-1,-1,-1,-1,-1,-1,-1,-1,-1,-1,-1,-1,-1,-1,-1,-1,-1,-1,-1,-1,-1,-1,-1,-1,-1,-1,-1,-1,-1,-1,-1,-1,-1,-1,-1,-1,-1,-1,-1,-1,-1,-1,-1,-1],"loss_changes":[3.2680032E-1,3.3948153E-1,1.2102106E0,7.725586E-1,4.139642E-1,2.5299048E-1,1.8258085E0,4.8333052E-1,9.143923E-1,6.0705274E-1,4.9622095E-1,4.388572E-1,1.1166437E0,6.28112E-1,5.85551E-1,5.858715E-1,1.8691314E0,2.6996404E-1,7.932875E-1,5.6677413E-1,6.8488395E-1,8.801193E-1,1.3222635E0,7.120295E-1,9.974572E-1,8.284385E-1,0E0,1.214196E-1,7.5976723E-1,6.8059385E-2,0E0,8.284486E-1,1.6917497E0,9.343498E-1,6.1122084E-1,2.7804637E-1,1.5799726E0,1.1480923E0,1.3574672E0,7.1314764E-1,4.1137707E-1,1.530303E0,3.8115817E-1,1.2690246E0,4.359374E-1,2.1829385E-1,1.0136168E0,7.8174067E-1,5.881233E-1,1.3297207E0,1.3553819E-1,1.00643575E-1,2.0583716E-1,4.386574E-3,5.0677888E-2,1.487889E-1,0E0,0E0,0E0,0E0,0E0,0E0,0E0,0E0,0E0,0E0,0E0,0E0,0E0,0E0,0E0,0E0,0E0,0E0,0E0,0E0,0E0,0E0,0E0,0E0,0E0,0E0,0E0,0E0,0E0,0E0,0E0,0E0,0E0,0E0,0E0,0E0,0E0,0E0,0E0,0E0,0E0,0E0,0E0,0E0,0E0,0E0,0E0,0E0,0E0,0E0,0E0,0E0,0E0],"parents":[2147483647,0,0,1,1,2,2,3,3,4,4,5,5,6,6,7,7,8,8,9,9,10,10,11,11,12,12,13,13,14,14,15,15,16,16,17,17,18,18,19,19,20,20,21,21,22,22,23,23,24,24,25,25,27,27,28,28,29,29,31,31,32,32,33,33,34,34,35,35,36,36,37,37,38,38,39,39,40,40,41,41,42,42,43,43,44,44,45,45,46,46,47,47,48,48,49,49,50,50,51,51,52,52,53,53,54,54,55,55],"right_children":[2,4,6,8,10,12,14,16,18,20,22,24,26,28,30,32,34,36,38,40,42,44,46,48,50,52,-1,54,56,58,-1,60,62,64,66,68,70,72,74,76,78,80,82,84,86,88,90,92,94,96,98,100,102,104,106,108,-1,-1,-1,-1,-1,-1,-1,-1,-1,-1,-1,-1,-1,-1,-1,-1,-1,-1,-1,-1,-1,-1,-1,-1,-1,-1,-1,-1,-1,-1,-1,-1,-1,-1,-1,-1,-1,-1,-1,-1,-1,-1,-1,-1,-1,-1,-1,-1,-1,-1,-1,-1,-1],"split_conditions":[5.9E1,5.4E1,1E0,5.3E1,1E0,1E0,1E0,5.2E1,1E0,1E0,5.8E1,1E0,1E0,1E0,1E0,1E0,1E0,1E0,1E0,1E0,5.6E1,5.6E1,1E0,1E0,1E0,1E0,-5.4788228E-2,1E0,1E0,1E0,1.0065851E-1,1E0,2.1E1,1E0,1E0,1E0,1E0,1E0,1E0,5.8E1,5.7E1,1E0,5.8E1,1E0,1E0,1E0,1E0,1E0,1E0,1E0,1E0,1E0,1E0,1E0,1E0,1E0,-7.283666E-2,2.4609784E-2,5.2922543E-2,2.1591848E-3,-2.4531614E-3,2.032232E-2,-2.5817961E-3,6.8785036E-3,-1.7289782E-2,2.1865759E-2,5.8684953E-2,9.404343E-3,-5.468467E-3,-4.319492E-2,1.7771048E-2,-4.5032047E-2,3.9455644E-3,-1.801416E-2,7.3997855E-2,9.061064E-3,-6.502706E-3,-1.1678896E-2,4.558051E-3,-2.8158655E-2,2.2294875E-2,7.6453467E-3,-1.1625184E-2,4.203693E-3,3.622771E-2,-8.60821E-3,1.0436438E-2,-3.5660854E-3,1.5209492E-2,1.6876552E-2,8.5993364E-2,-2.776181E-3,-5.364985E-2,2.5455032E-2,-1.5565594E-2,-2.9423914E-4,-6.1536416E-2,2.6017847E-3,3.9520025E-2,-2.8940953E-2,-9.401136E-3,3.5727717E-2,-3.5298818E-3,1.8636823E-2,1.2838267E-2,8.67561E-3,-1.4194896E-2,2.2380883E-2,-1.9183E-2],"split_indices":[0,0,4,0,1,1,9,0,1,9,0,5,7,10,3,3,10,8,5,4,0,0,9,2,7,5,0,3,2,1,0,5,0,9,5,6,6,7,9,0,0,4,0,8,10,6,6,8,7,2,2,8,10,7,7,1,0,0,0,0,0,0,0,0,0,0,0,0,0,0,0,0,0,0,0,0,0,0,0,0,0,0,0,0,0,0,0,0,0,0,0,0,0,0,0,0,0,0,0,0,0,0,0,0,0,0,0,0,0],"split_type":[0,0,0,0,0,0,0,0,0,0,0,0,0,0,0,0,0,0,0,0,0,0,0,0,0,0,0,0,0,0,0,0,0,0,0,0,0,0,0,0,0,0,0,0,0,0,0,0,0,0,0,0,0,0,0,0,0,0,0,0,0,0,0,0,0,0,0,0,0,0,0,0,0,0,0,0,0,0,0,0,0,0,0,0,0,0,0,0,0,0,0,0,0,0,0,0,0,0,0,0,0,0,0,0,0,0,0,0,0],"sum_hessian":[3.556305E4,3.466879E4,8.942614E2,3.0209812E4,4.4589775E3,6.749112E2,2.1935023E2,2.9312762E4,8.9705035E2,2.9856064E3,1.4733711E3,4.5474475E2,2.2016647E2,1.6218872E2,5.71615E1,2.842894E4,8.838226E2,6.0221185E2,2.9483853E2,2.2536404E3,7.3196594E2,1.1753774E3,2.9799365E2,2.9192285E2,1.6282187E2,1.6063617E2,5.9530296E1,1.1257555E2,4.9613186E1,3.7571663E1,1.9589834E1,1.893257E4,9.496368E3,6.6605963E2,2.1776292E2,4.5100378E2,1.5120804E2,2.1590242E2,7.8936104E1,1.6781393E3,5.755011E2,3.1611276E2,4.1585318E2,5.855714E2,5.89806E2,2.2139252E2,7.6601135E1,1.4097726E2,1.509456E2,1.2699581E2,3.5826065E1,1.068031E2,5.3833073E1,7.8424515E1,3.4151028E1,2.9013575E1,2.0599611E1,2.39678E1,1.3603866E1,1.4289821E4,4.64275E3,2.9869916E2,9.197669E3,4.5711597E2,2.0894371E2,1.6364322E2,5.411971E1,2.1849718E2,2.3250662E2,7.578247E1,7.542557E1,1.5687427E2,5.902814E1,6.113836E1,1.7797749E1,1.3492506E3,3.288887E2,3.3490356E2,2.4059753E2,2.4778116E2,6.83316E1,2.7898102E2,1.3687216E2,4.369581E2,1.4861334E2,4.4824725E2,1.4155879E2,1.0884983E2,1.1254268E2,3.8919346E1,3.768179E1,1.0527263E2,3.5704636E1,1.0741487E2,4.3530727E1,6.068555E1,6.6310265E1,1.5901088E1,1.9924976E1,6.888356E1,3.7919548E1,3.6357235E1,1.7475838E1,4.54034E1,3.3021114E1,1.3930811E1,2.0220217E1,1.434567E1,1.4667905E1],"tree_param":{"num_deleted":"0","num_feature":"11","num_nodes":"109","size_leaf_vector":"1"}},{"base_weights":[-3.5021324E-3,-9.339593E-3,-6.132174E-5,-6.1315843E-3,-1.9310754E-2,6.467326E-3,-8.495237E-3,-9.343264E-3,3.4540696E-3,-1.5837178E-2,-6.771035E-2,9.5219014E-4,1.9778661E-2,-1.20598795E-2,2.3739974E-3,-5.9209135E-3,-2.2919517E-2,-1.2829645E-3,6.74516E-2,-2.1981653E-2,2.8924767E-3,-1.9184781E-2,-2.0667656E-1,8.096436E-3,-2.7832806E-2,4.6776727E-2,1.0861177E-2,-2.0366851E-2,4.5596585E-3,8.253939E-2,-6.2354417E-3,-1.1651787E-2,5.4171844E-3,-3.5576604E-2,1.9230623E-3,9.414953E-3,-2.1889804E-2,-1.6385015E-2,2.022221E-1,-3.2387123E-2,-1.6159367E-2,1.432021E-2,-6.5581895E-2,5.545998E-2,-1.7232129E-1,-7.4383534E-2,-3.416836E-2,2.3453426E-2,-7.517058E-3,-1.44568635E-2,-6.949122E-2,6.8839796E-2,6.0531544E-3,2.03892E-3,3.685704E-2,-1.3785626E-2,-3.9783653E-2,-4.9060243E-3,1.5927298E-2,1.0879117E-1,1.9055253E-2,9.155232E-3,-5.0419565E-2,-5.002994E-3,4.0806234E-3,-4.554783E-3,6.0883327E-3,-2.2180323E-2,-5.176252E-3,-5.3676693E-3,1.294529E-2,8.078708E-3,-7.720084E-3,5.3501297E-3,-2.2691896E-2,-2.1234736E-2,1.2486926E-2,7.152556E-2,3.5229485E-2,-5.481101E-3,-2.7337683E-2,1.5941277E-2,-7.784481E-3,1.9534366E-2,1.2373582E-3,-3.327509E-2,1.4373855E-2,2.1167597E-2,1.2589195E-2,-2.8858453E-2,-9.91913E-2,9.110719E-3,8.599345E-4,-1.3143649E-4,-8.551643E-3,3.374141E-3,-2.1338513E-2,-3.357846E-2,3.5852734E-3,3.0206716E-2,-5.6623267E-3,-7.7908523E-3,3.172211E-2,3.276867E-3,-4.8559816E-3,-1.282478E-2,2.2244591E-2,3.3189612E-4,-7.866577E-3,-1.9231064E-2,7.3225894E-3,2.2215492E-3,-2.0367477E-2,1.2867355E-2,-8.055615E-4,4.7456402E-2,2.8019631E-3,2.3082633E-2,-4.1687585E-2,8.797886E-3,-3.528016E-3,-2.7913695E-2,-2.6979446E-3],"categories":[],"categories_nodes":[],"categories_segments":[],"categories_sizes":[],"default_left":[0,0,0,0,0,0,0,0,0,0,0,0,0,0,0,0,0,0,0,0,0,0,0,0,0,0,0,0,0,0,0,0,0,0,0,0,0,0,0,0,0,0,0,0,0,0,0,0,0,0,0,0,0,0,0,0,0,0,0,0,0,0,0,0,0,0,0,0,0,0,0,0,0,0,0,0,0,0,0,0,0,0,0,0,0,0,0,0,0,0,0,0,0,0,0,0,0,0,0,0,0,0,0,0,0,0,0,0,0,0,0,0,0,0,0,0,0,0,0,0,0,0,0],"id":11,"left_children":[1,3,5,7,9,11,13,15,17,19,21,23,25,27,29,31,33,35,37,39,41,43,45,47,49,51,53,55,57,59,61,63,65,67,69,71,73,75,77,79,81,83,85,87,89,-1,-1,91,93,95,97,99,101,103,105,107,109,111,113,115,117,119,121,-1,-1,-1,-1,-1,-1,-1,-1,-1,-1,-1,-1,-1,-1,-1,-1,-1,-1,-1,-1,-1,-1,-1,-1,-1,-1,-1,-1,-1,-1,-1,-1,-1,-1,-1,-1,-1,-1,-1,-1,-1,-1,-1,-1,-1,-1,-1,-1,-1,-1,-1,-1,-1,-1,-1,-1,-1,-1,-1,-1],"loss_changes":[7.1197253E-1,4.203695E-1,1.2280815E0,3.0626228E-1,5.36795E-1,9.229265E-1,3.7708557E-1,3.460558E-1,7.570996E-1,3.4374815E-1,1.438652E0,1.8284297E0,8.861468E-1,1.0118569E0,1.6598632E0,3.8681993E-1,4.7164547E-1,5.129678E-1,1.9479593E0,1.357168E-1,5.788895E-1,1.8346509E0,1.833725E-1,1.7081206E0,9.841244E-1,8.20894E-1,6.351356E-1,6.2387013E-1,2.629635E-1,3.8662803E-1,1.4774693E0,5.019873E-1,6.1297506E-1,6.970383E-1,4.1508982E-1,9.436654E-1,1.6991374E0,3.4068382E-1,1.7481136E-1,6.665361E-1,9.8087287E-1,3.2795268E-1,5.4975486E-1,1.9066393E-2,6.017226E-1,0E0,0E0,5.112107E-1,5.248753E-1,1.9520359E0,1.4855092E0,1.657948E0,1.0316411E0,3.351748E-1,2.0863671E0,6.761949E-1,1.9318246E0,1.0348011E0,5.573225E-1,8.080671E-1,6.458885E-1,6.803043E-1,9.902816E-1,0E0,0E0,0E0,0E0,0E0,0E0,0E0,0E0,0E0,0E0,0E0,0E0,0E0,0E0,0E0,0E0,0E0,0E0,0E0,0E0,0E0,0E0,0E0,0E0,0E0,0E0,0E0,0E0,0E0,0E0,0E0,0E0,0E0,0E0,0E0,0E0,0E0,0E0,0E0,0E0,0E0,0E0,0E0,0E0,0E0,0E0,0E0,0E0,0E0,0E0,0E0,0E0,0E0,0E0,0E0,0E0,0E0,0E0,0E0,0E0],"parents":[2147483647,0,0,1,1,2,2,3,3,4,4,5,5,6,6,7,7,8,8,9,9,10,10,11,11,12,12,13,13,14,14,15,15,16,16,17,17,18,18,19,19,20,20,21,21,22,22,23,23,24,24,25,25,26,26,27,27,28,28,29,29,30,30,31,31,32,32,33,33,34,34,35,35,36,36,37,37,38,38,39,39,40,40,41,41,42,42,43,43,44,44,47,47,48,48,49,49,50,50,51,51,52,52,53,53,54,54,55,55,56,56,57,57,58,58,59,59,60,60,61,61,62,62],"right_children":[2,4,6,8,10,12,14,16,18,20,22,24,26,28,30,32,34,36,38,40,42,44,46,48,50,52,54,56,58,60,62,64,66,68,70,72,74,76,78,80,82,84,86,88,90,-1,-1,92,94,96,98,100,102,104,106,108,110,112,114,116,118,120,122,-1,-1,-1,-1,-1,-1,-1,-1,-1,-1,-1,-1,-1,-1,-1,-1,-1,-1,-1,-1,-1,-1,-1,-1,-1,-1,-1,-1,-1,-1,-1,-1,-1,-1,-1,-1,-1,-1,-1,-1,-1,-1,-1,-1,-1,-1,-1,-1,-1,-1,-1,-1,-1,-1,-1,-1,-1,-1,-1,-1],"split_conditions":[3.5E1,1E0,4.9E1,1E0,3.4E1,4.5E1,1E0,3.2E1,3.4E1,1E0,1E0,4.3E1,4.6E1,1E0,5E1,1E0,1E0,1E0,1E0,2.5E1,3.2E1,1E0,1E0,1E0,1E0,1E0,1E0,1E0,5.5E1,1E0,1E0,3E1,2.5E1,3.3E1,1E0,1E0,2.8E1,1E0,1E0,2.4E1,2.6E1,2.2E1,1E0,1E0,1E0,-7.4383534E-2,-3.416836E-2,1E0,1E0,1E0,1E0,1E0,1E0,1E0,4.7E1,5.4E1,5.7E1,5.4E1,5.7E1,1E0,1E0,5.5E1,5.5E1,-5.002994E-3,4.0806234E-3,-4.554783E-3,6.0883327E-3,-2.2180323E-2,-5.176252E-3,-5.3676693E-3,1.294529E-2,8.078708E-3,-7.720084E-3,5.3501297E-3,-2.2691896E-2,-2.1234736E-2,1.2486926E-2,7.152556E-2,3.5229485E-2,-5.481101E-3,-2.7337683E-2,1.5941277E-2,-7.784481E-3,1.9534366E-2,1.2373582E-3,-3.327509E-2,1.4373855E-2,2.1167597E-2,1.2589195E-2,-2.8858453E-2,-9.91913E-2,9.110719E-3,8.599345E-4,-1.3143649E-4,-8.551643E-3,3.374141E-3,-2.1338513E-2,-3.357846E-2,3.5852734E-3,3.0206716E-2,-5.6623267E-3,-7.7908523E-3,3.172211E-2,3.276867E-3,-4.8559816E-3,-1.282478E-2,2.2244591E-2,3.3189612E-4,-7.866577E-3,-1.9231064E-2,7.3225894E-3,2.2215492E-3,-2.0367477E-2,1.2867355E-2,-8.055615E-4,4.7456402E-2,2.8019631E-3,2.3082633E-2,-4.1687585E-2,8.797886E-3,-3.528016E-3,-2.7913695E-2,-2.6979446E-3],"split_indices":[0,7,0,5,0,0,10,0,0,5,5,0,0,3,0,9,10,3,3,0,0,2,2,6,8,3,8,4,0,4,5,0,0,0,2,9,0,1,10,0,0,0,1,1,4,0,0,9,10,1,1,8,8,1,0,0,0,0,0,3,1,0,0,0,0,0,0,0,0,0,0,0,0,0,0,0,0,0,0,0,0,0,0,0,0,0,0,0,0,0,0,0,0,0,0,0,0,0,0,0,0,0,0,0,0,0,0,0,0,0,0,0,0,0,0,0,0,0,0,0,0,0,0],"split_type":[0,0,0,0,0,0,0,0,0,0,0,0,0,0,0,0,0,0,0,0,0,0,0,0,0,0,0,0,0,0,0,0,0,0,0,0,0,0,0,0,0,0,0,0,0,0,0,0,0,0,0,0,0,0,0,0,0,0,0,0,0,0,0,0,0,0,0,0,0,0,0,0,0,0,0,0,0,0,0,0,0,0,0,0,0,0,0,0,0,0,0,0,0,0,0,0,0,0,0,0,0,0,0,0,0,0,0,0,0,0,0,0,0,0,0,0,0,0,0,0,0,0,0],"sum_hessian":[3.5445945E4,1.3144354E4,2.2301592E4,9.946041E3,3.1983125E3,1.257082E4,9.7307705E3,7.449954E3,2.4960867E3,2.9853828E3,2.1292984E2,8.889009E3,3.6818118E3,7.3275415E3,2.403229E3,5.9511924E3,1.4987617E3,2.324974E3,1.7111234E2,2.2477947E3,7.375882E2,1.5866405E2,5.4265793E1,7.122075E3,1.7669332E3,9.131041E2,2.7687075E3,4.885426E3,2.442116E3,2.322339E2,2.170995E3,3.953073E3,1.9981195E3,9.9260547E2,5.0615628E2,1.5308076E3,7.9416656E2,1.0603168E2,6.508066E1,8.048394E2,1.4429552E3,6.327749E2,1.0481335E2,1.0709806E2,5.1565975E1,3.6402134E1,1.7863657E1,3.5902778E3,3.5317976E3,1.3385049E3,4.2842834E2,5.917938E2,3.2131033E2,2.067974E3,7.007333E2,3.6499905E3,1.2354354E3,1.3328434E3,1.1092726E3,1.6379016E2,6.844374E1,1.6107239E3,5.602713E2,3.29733E3,6.557428E2,8.379003E2,1.1602192E3,3.1988812E2,6.7271735E2,3.4223468E2,1.6392162E2,1.0218613E3,5.0894635E2,4.570524E2,3.371142E2,5.4605152E1,5.1426525E1,4.434027E1,2.0740385E1,6.499469E2,1.5489252E2,1.7805455E2,1.2649006E3,1.0488032E2,5.2789453E2,7.491252E1,2.9900824E1,4.855215E1,5.8545914E1,3.5907475E1,1.5658501E1,2.687133E3,9.0314465E2,2.6417976E3,8.8999994E2,9.2139667E2,4.1710822E2,2.814166E2,1.4701176E2,4.340436E2,1.5775021E2,2.4374976E2,7.7560585E1,1.3905541E3,6.7742017E2,2.234942E2,4.772391E2,1.6614203E3,1.9885701E3,8.9598425E2,3.3945114E2,1.1156587E3,2.1718474E2,4.524725E2,6.5680005E2,1.09040054E2,5.4750107E1,5.046825E1,1.7975487E1,8.1974536E2,7.909785E2,2.7552322E2,2.8474808E2],"tree_param":{"num_deleted":"0","num_feature":"11","num_nodes":"123","size_leaf_vector":"1"}},{"base_weights":[2.1087488E-3,7.649885E-3,2.7157218E-4,1.2979167E-2,-8.867213E-3,-2.0590366E-3,4.897577E-3,1.7964927E-2,3.2348027E-3,-1.6471306E-2,1.3302826E-2,1.4879295E-3,-1.2509391E-2,-8.118661E-5,1.9628985E-2,2.22995E-2,4.672713E-3,9.897902E-3,-1.7311014E-2,-2.0599341E-2,1.7841434E-2,-1.608316E-2,2.703304E-2,-3.8218795E-4,2.768209E-2,-3.5965767E-2,3.3427868E-3,-3.6590703E-2,3.873183E-3,3.2507073E-2,-1.9284578E-2,2.984981E-2,7.816051E-3,-1.8896261E-2,2.0384727E-2,2.2882618E-2,7.0708245E-4,-6.220825E-3,-5.7312515E-2,-4.781103E-3,-3.983948E-2,-1.1951302E-2,8.358366E-2,1.3183512E-2,-3.4596052E-2,1.4550811E-2,5.1899835E-2,8.435923E-3,-1.0457768E-2,-4.3534725E-3,1.2743278E-1,-1.9367727E-2,-8.763527E-2,1.8257372E-2,-3.761697E-2,-7.274437E-2,7.125885E-2,3.4299463E-2,-1.4286233E-3,-6.86294E-2,3.583783E-2,5.1493343E-2,-3.322418E-2,1.2070607E-2,2.7936073E-3,-6.0696513E-3,1.8401146E-2,2.1753707E-3,-2.1152418E-2,3.2892924E-2,4.9989764E-4,4.041167E-3,1.5353978E-2,-1.0162038E-2,5.4421895E-3,-7.4081616E-3,9.048088E-3,-6.892403E-3,-3.5463672E-2,4.380542E-3,-1.3069098E-2,-2.569211E-2,-7.3071048E-3,-1.9433862E-2,2.3844702E-2,1.0654328E-2,4.418985E-2,-1.9186192E-4,1.2172171E-2,-1.9518787E-2,5.4961164E-3,-5.9165093E-3,1.7480813E-2,3.2678265E-2,-8.787799E-3,1.3562586E-3,1.9336099E-2,-9.182513E-3,-4.5325432E-4,7.371894E-3,-1.9767573E-2,3.3809103E-2,4.6410765E-2,6.4371014E-3,-1.5173366E-2,-2.2714768E-2,-6.256389E-2,9.798967E-3,-6.7655663E-3,-1.6881604E-2,3.7490225E-3,-1.5391124E-3,-3.121213E-2,-1.656455E-3,6.5830685E-2,4.220091E-3,2.8336326E-2,-2.1435017E-2,1.5000602E-3,-4.5984134E-2,2.4460299E-2,4.6650976E-2,9.62612E-3,-1.1668508E-2,3.4454223E-2,-2.6436223E-2,-4.3306565E-3],"categories":[],"categories_nodes":[],"categories_segments":[],"categories_sizes":[],"default_left":[0,0,0,0,0,0,0,0,0,0,0,0,0,0,0,0,0,0,0,0,0,0,0,0,0,0,0,0,0,0,0,0,0,0,0,0,0,0,0,0,0,0,0,0,0,0,0,0,0,0,0,0,0,0,0,0,0,0,0,0,0,0,0,0,0,0,0,0,0,0,0,0,0,0,0,0,0,0,0,0,0,0,0,0,0,0,0,0,0,0,0,0,0,0,0,0,0,0,0,0,0,0,0,0,0,0,0,0,0,0,0,0,0,0,0,0,0,0,0,0,0,0,0,0,0,0,0],"id":12,"left_children":[1,3,5,7,9,11,13,15,17,19,21,23,25,27,29,31,33,35,37,39,41,43,45,47,49,51,53,55,57,59,61,63,65,67,69,71,73,75,77,79,81,83,85,87,89,91,93,95,97,99,101,103,105,107,109,111,113,115,117,119,121,123,125,-1,-1,-1,-1,-1,-1,-1,-1,-1,-1,-1,-1,-1,-1,-1,-1,-1,-1,-1,-1,-1,-1,-1,-1,-1,-1,-1,-1,-1,-1,-1,-1,-1,-1,-1,-1,-1,-1,-1,-1,-1,-1,-1,-1,-1,-1,-1,-1,-1,-1,-1,-1,-1,-1,-1,-1,-1,-1,-1,-1,-1,-1,-1,-1],"loss_changes":[3.6265004E-1,7.809062E-1,2.8846276E-1,3.2577705E-1,3.6510304E-1,6.595152E-1,6.5743333E-1,2.555083E-1,3.1110734E-1,2.2871035E-1,2.236898E-1,6.5075904E-1,1.6765937E0,9.6749836E-1,1.1352959E0,3.655851E-1,4.0485635E-1,2.047373E-1,2.4655168E-1,4.3789452E-1,3.4112266E-1,9.626605E-2,1.1641705E-1,1.1018064E0,2.8294034E0,1.5577118E0,1.6448193E0,2.5587502E0,9.754416E-1,5.7565594E-1,5.5779505E-1,4.685731E-1,1.724093E0,5.907928E-1,1.0955627E0,1.8869096E-1,6.068848E-1,2.9435918E-1,2.496666E-1,5.9532255E-1,4.5836246E-1,5.8658814E-1,1.610131E-1,2.6241727E-2,1.7626254E-1,3.7981808E-1,5.85541E-1,1.450078E0,1.0434211E0,1.1960889E0,6.9051266E-2,1.7562311E0,6.2093544E-1,1.1610068E0,6.7262304E-1,1.0383973E0,1.8775842E0,1.0907676E0,2.3187625E0,7.0648324E-1,7.3468804E-1,5.377886E-1,4.8504347E-1,0E0,0E0,0E0,0E0,0E0,0E0,0E0,0E0,0E0,0E0,0E0,0E0,0E0,0E0,0E0,0E0,0E0,0E0,0E0,0E0,0E0,0E0,0E0,0E0,0E0,0E0,0E0,0E0,0E0,0E0,0E0,0E0,0E0,0E0,0E0,0E0,0E0,0E0,0E0,0E0,0E0,0E0,0E0,0E0,0E0,0E0,0E0,0E0,0E0,0E0,0E0,0E0,0E0,0E0,0E0,0E0,0E0,0E0,0E0,0E0,0E0,0E0,0E0,0E0],"parents":[2147483647,0,0,1,1,2,2,3,3,4,4,5,5,6,6,7,7,8,8,9,9,10,10,11,11,12,12,13,13,14,14,15,15,16,16,17,17,18,18,19,19,20,20,21,21,22,22,23,23,24,24,25,25,26,26,27,27,28,28,29,29,30,30,31,31,32,32,33,33,34,34,35,35,36,36,37,37,38,38,39,39,40,40,41,41,42,42,43,43,44,44,45,45,46,46,47,47,48,48,49,49,50,50,51,51,52,52,53,53,54,54,55,55,56,56,57,57,58,58,59,59,60,60,61,61,62,62],"right_children":[2,4,6,8,10,12,14,16,18,20,22,24,26,28,30,32,34,36,38,40,42,44,46,48,50,52,54,56,58,60,62,64,66,68,70,72,74,76,78,80,82,84,86,88,90,92,94,96,98,100,102,104,106,108,110,112,114,116,118,120,122,124,126,-1,-1,-1,-1,-1,-1,-1,-1,-1,-1,-1,-1,-1,-1,-1,-1,-1,-1,-1,-1,-1,-1,-1,-1,-1,-1,-1,-1,-1,-1,-1,-1,-1,-1,-1,-1,-1,-1,-1,-1,-1,-1,-1,-1,-1,-1,-1,-1,-1,-1,-1,-1,-1,-1,-1,-1,-1,-1,-1,-1,-1,-1,-1,-1],"split_conditions":[3E1,1E0,1E0,1E0,1E0,1E0,1E0,1E0,1E0,2.9E1,2.3E1,5.8E1,4.2E1,3.3E1,1E0,1E0,2.4E1,2.4E1,2.8E1,2.5E1,1E0,2.1E1,1E0,4.5E1,1E0,1E0,5.5E1,1E0,3.7E1,3.1E1,3.5E1,1E0,1E0,1E0,2.5E1,2.3E1,2.6E1,2.5E1,1E0,1E0,2.6E1,1E0,1E0,1E0,1E0,2.7E1,2.7E1,4.4E1,4.9E1,1E0,1E0,3.5E1,4.1E1,1E0,1E0,3.1E1,1E0,3.6E1,3.9E1,1E0,3.2E1,3.2E1,4.1E1,1.2070607E-2,2.7936073E-3,-6.0696513E-3,1.8401146E-2,2.1753707E-3,-2.1152418E-2,3.2892924E-2,4.9989764E-4,4.041167E-3,1.5353978E-2,-1.0162038E-2,5.4421895E-3,-7.4081616E-3,9.048088E-3,-6.892403E-3,-3.5463672E-2,4.380542E-3,-1.3069098E-2,-2.569211E-2,-7.3071048E-3,-1.9433862E-2,2.3844702E-2,1.0654328E-2,4.418985E-2,-1.9186192E-4,1.2172171E-2,-1.9518787E-2,5.4961164E-3,-5.9165093E-3,1.7480813E-2,3.2678265E-2,-8.787799E-3,1.3562586E-3,1.9336099E-2,-9.182513E-3,-4.5325432E-4,7.371894E-3,-1.9767573E-2,3.3809103E-2,4.6410765E-2,6.4371014E-3,-1.5173366E-2,-2.2714768E-2,-6.256389E-2,9.798967E-3,-6.7655663E-3,-1.6881604E-2,3.7490225E-3,-1.5391124E-3,-3.121213E-2,-1.656455E-3,6.5830685E-2,4.220091E-3,2.8336326E-2,-2.1435017E-2,1.5000602E-3,-4.5984134E-2,2.4460299E-2,4.6650976E-2,9.62612E-3,-1.1668508E-2,3.4454223E-2,-2.6436223E-2,-4.3306565E-3],"split_indices":[0,5,2,1,10,4,4,9,8,0,0,0,0,0,8,10,0,0,0,0,8,0,1,0,10,9,0,9,0,0,0,4,4,4,0,0,0,0,4,8,0,3,2,3,2,0,0,0,0,5,5,0,0,7,8,0,5,0,0,9,0,0,0,0,0,0,0,0,0,0,0,0,0,0,0,0,0,0,0,0,0,0,0,0,0,0,0,0,0,0,0,0,0,0,0,0,0,0,0,0,0,0,0,0,0,0,0,0,0,0,0,0,0,0,0,0,0,0,0,0,0,0,0,0,0,0,0],"split_type":[0,0,0,0,0,0,0,0,0,0,0,0,0,0,0,0,0,0,0,0,0,0,0,0,0,0,0,0,0,0,0,0,0,0,0,0,0,0,0,0,0,0,0,0,0,0,0,0,0,0,0,0,0,0,0,0,0,0,0,0,0,0,0,0,0,0,0,0,0,0,0,0,0,0,0,0,0,0,0,0,0,0,0,0,0,0,0,0,0,0,0,0,0,0,0,0,0,0,0,0,0,0,0,0,0,0,0,0,0,0,0,0,0,0,0,0,0,0,0,0,0,0,0,0,0,0,0],"sum_hessian":[3.5622816E4,8.869181E3,2.6753637E4,6.705764E3,2.1634167E3,1.7790986E4,8.962649E3,4.435481E3,2.270283E3,1.6110876E3,5.523293E2,1.3283333E4,4.507653E3,6.699439E3,2.2632104E3,3.3442485E3,1.0912324E3,1.7147124E3,5.555706E2,1.4384347E3,1.7265295E2,1.7583289E2,3.7649637E2,1.2399093E4,8.842409E2,1.8173145E3,2.6903384E3,6.5390216E2,6.045537E3,1.7005828E3,5.626278E2,2.197577E3,1.1466715E3,4.3640134E2,6.548311E2,7.1005817E2,1.00465424E3,4.3588068E2,1.19689926E2,7.9010236E2,6.4833234E2,1.1937389E2,5.327906E1,6.824057E1,1.07592316E2,2.5172481E2,1.2477156E2,6.6122437E3,5.786849E3,6.70017E2,2.1422385E2,1.3765073E3,4.4080713E2,1.9726105E3,7.17728E2,4.899763E2,1.6392589E2,8.963051E2,5.149232E3,5.359503E1,1.6469877E3,9.21327E1,4.704951E2,1.4588878E3,7.3868915E2,7.52788E2,3.9388348E2,2.9022662E2,1.461747E2,1.1267673E2,5.421544E2,5.3393896E2,1.761192E2,3.3641364E2,6.682406E2,2.893037E2,1.4657695E2,7.741649E1,4.2273438E1,5.272264E2,2.6287595E2,1.626482E2,4.8568414E2,7.584432E1,4.352957E1,3.1255964E1,2.2023094E1,4.6001656E1,2.223891E1,6.813446E1,3.9457855E1,1.4141418E2,1.1031062E2,7.309192E1,5.167964E1,6.181314E3,4.3092932E2,1.7785984E3,4.0082505E3,4.5618546E2,2.1383159E2,1.4240506E2,7.181878E1,5.965271E2,7.799802E2,4.0273212E2,3.8075024E1,1.4580957E3,5.145147E2,5.229389E2,1.9478914E2,1.5540134E2,3.3457495E2,1.08610306E2,5.5315586E1,6.7163983E2,2.2466527E2,4.321566E2,4.717075E3,3.4260677E1,1.9334354E1,4.8824326E1,1.5981633E3,3.812506E1,5.400764E1,1.19028496E2,3.5146658E2],"tree_param":{"num_deleted":"0","num_feature":"11","num_nodes":"127","size_leaf_vector":"1"}},{"base_weights":[6.0378184E-4,1.0307735E-3,-1.5967852E-2,-5.023009E-4,5.6441952E-3,-3.4177475E-2,3.9557952E-2,2.8730992E-3,-4.076065E-3,1.11945635E-2,-1.17268395E-2,-2.2584163E-2,-5.8022164E-2,-7.5085317E-3,1.6883813E-1,-5.169091E-3,9.253027E-3,-1.859657E-2,-2.2943171E-4,-7.268024E-3,1.7231064E-2,-2.501941E-2,1.645633E-2,-2.2819364E-3,-5.8956265E-2,-2.0454388E-2,-4.77448E-2,2.7857503E-2,-8.783146E-2,1.05104625E-1,8.341874E-2,4.17054E-3,-1.4762181E-2,2.4111182E-3,2.2653963E-2,-2.6870787E-2,-2.0361335E-3,4.1401023E-3,-1.3369063E-2,3.0323279E-3,-2.777843E-2,2.525515E-2,9.064358E-3,-1.4594538E-2,-1.4581153E-1,4.6543155E-2,-4.2044133E-2,-4.5293286E-2,3.7497986E-2,-9.450528E-2,6.385332E-2,-6.321626E-2,6.262428E-2,4.7625836E-2,-1.7760387E-2,2.1163453E-3,-6.36762E-2,2.229042E-2,4.5057308E-2,6.016812E-3,-2.8295272E-3,-7.785633E-3,2.0341359E-3,9.063929E-3,-1.1234592E-3,4.2816796E-3,1.4432809E-2,-1.3555657E-2,-2.6585269E-3,4.004897E-3,-9.965119E-3,-6.1160605E-4,4.966914E-3,1.751119E-2,-5.5793775E-3,2.1634079E-3,-1.0211044E-2,-2.1875633E-3,-3.616774E-2,1.2585262E-2,-2.5543398E-3,6.4863865E-3,-4.922254E-3,5.730271E-3,-1.1333774E-2,-6.22599E-2,-2.35478E-2,3.1014038E-2,2.4944608E-4,-3.731649E-2,5.169009E-3,-2.260604E-3,-4.6596248E-2,2.1251934E-2,-1.3679697E-2,-6.8522635E-4,-5.3820882E-2,6.385412E-4,3.309653E-2,-2.5423406E-2,-6.9089956E-3,2.9195828E-2,-3.5426177E-3,1.645207E-2,1.0916433E-2,7.062596E-3,-1.3831851E-2,1.8517807E-2,-1.7142411E-2],"categories":[],"categories_nodes":[],